{"activation":"silu","layers":[{"W":[[0.35425,0.3894,-0.016907,0.4104,-0.083313],[0.1004,-0.26489,0.21594,0.34863,-0.3877],[0.56055,0.10297,0.35962,0.073914,0.26709],[0.045685,0.36597,0.10699,-0.146,0.16541],[-0.20715,-0.039246,-0.18835,0.28687,-0.40186],[-0.22961,-0.094055,-0.28931,0.064148,-0.49976],[0.39722,-0.47974,0.22559,0.077759,-0.19812],[0.35742,0.020889,0.44751,0.003746,-0.20093],[0.030182,-0.098328,0.21704,0.49097,0.30054],[-0.25269,0.28809,-0.054504,0.27637,-0.33179],[-0.53027,-0.22607,-0.32886,0.29688,0.066406],[-0.0020676,0.15686,-0.012367,0.35034,-0.49146],[0.082214,-0.35474,0.11847,-0.17737,0.098633],[-0.19824,0.32227,-0.30005,-0.25928,-0.35181],[0.19043,0.10699,0.56738,-0.52686,-0.45825],[-0.58398,-0.39648,0.092102,0.17676,0.31421],[-0.18481,-0.37671,0.22009,-0.2688,0.22009],[-0.14661,0.22864,-0.37842,-0.21814,0.18066],[0.051056,-0.15564,0.22815,0.24231,-0.38745],[-0.34106,0.49536,-0.24792,-0.13367,-0.38599],[-0.43286,0.10687,-0.066467,-0.3313,0.065125],[-0.29736,-0.39038,-0.22815,-0.38599,-0.32886],[0.31543,0.034729,0.26343,-0.54395,-0.31714],[-0.21277,0.029861,-0.40991,-0.21191,-0.32886],[-0.01078,-0.17371,0.075317,-0.33521,-0.27563],[-0.25879,-0.1886,-0.33374,0.34473,-0.15796],[0.29858,0.084412,-0.46631,0.3042,-0.20935],[-0.1073,-0.39771,-0.45215,0.1394,-0.13708],[0.23755,-0.41992,0.28467,-0.2981,-0.10236],[0.19507,0.18396,0.4292,0.36255,-0.35645],[0.037964,-0.24866,-0.27319,-0.2832,0.45264],[-0.55615,0.37402,0.15454,0.15967,-0.2854],[0.51953,0.13977,-0.032532,-0.38965,0.20398],[-0.094971,-0.24292,0.37598,0.013824,-0.30591],[-0.38965,0.10736,0.31421,-0.16614,-0.26953],[-0.11127,-0.35645,0.15295,0.29346,-0.45679],[0.15894,0.25146,0.17761,-0.18335,0.27271],[0.29858,0.19226,-0.13074,-0.069519,-0.014854],[-0.050995,-0.18579,0.33667,0.36108,-0.12732],[-0.15698,0.010429,-0.026505,0.19116,0.17078],[-0.61182,-0.17517,0.34692,0.15918,-0.10004],[-0.25952,-0.33203,-0.39648,-0.20435,0.10675],[0.33325,0.2688,-0.58301,-0.31543,-0.11505],[0.37158,0.0072937,-0.18884,0.13232,-0.22412],[-0.36694,0.29883,-0.22668,-0.082947,-0.47534],[0.30933,0.30396,0.26489,-0.36377,-0.51416],[-0.31299,0.33643,0.28711,0.42432,0.29834],[0.10358,-0.038544,-0.34375,-0.37817,-0.46045],[0.23438,-0.27295,-0.11115,-0.28394,-0.11536],[-0.53369,-0.36816,0.049469,-0.14502,0.2876],[-0.11377,-0.35889,-0.054626,-0.25269,-0.18213],[-0.56055,0.21289,-0.33691,0.25684,0.22571],[0.28735,-0.42358,0.16614,-0.11066,0.15454],[0.34277,-0.12207,-0.091797,-0.10724,-0.42017],[0.26147,-0.51953,0.1748,0.30884,0.4624],[-0.067078,-0.37891,0.097168,0.22278,-0.49634],[-0.064148,-0.29346,-0.019531,-0.25464,-0.24597],[-0.095032,-0.46899,0.33398,0.34521,-0.11163],[0.01207,-0.23352,-0.42114,-0.45581,0.13953],[-0.21863,-0.28833,0.034363,-0.20996,-0.14966],[0.042328,-0.12445,-0.12622,-0.21924,-0.41333],[0.38794,-0.23975,0.026779,-0.15295,0.062195],[0.28564,0.26514,-0.38208,0.21118,0.4292],[0.22412,0.33716,0.47314,0.068665,0.15234],[-0.35229,-0.093689,0.34009,0.1427,-0.34546],[-0.37988,-0.32812,-0.41919,-0.36182,-0.14001],[0.22058,0.13074,-0.42114,-0.3938,0.25781],[-0.65625,0.061737,0.21497,-0.26538,0.0056267],[-0.0079041,-0.13025,-0.21899,-0.38599,-0.39453],[-0.27295,0.396,-0.24194,-0.26611,0.11121],[0.071777,0.20569,0.30225,0.19617,-0.50684],[0.020416,0.27026,-0.080872,-0.2428,0.47729],[-0.15076,-0.29468,-0.40283,-0.019867,0.16125],[0.10803,0.06073,-0.28662,-0.53076,-0.073792],[0.4502,0.31299,-0.2688,-0.012146,-0.35474],[-0.25684,0.069336,0.24438,0.32495,-0.47925],[0.34277,-0.40723,0.072632,0.34229,0.00068855],[0.46631,-0.46143,-0.27783,0.16394,-0.099304],[-0.19397,-0.24023,0.32544,0.2771,0.14514],[-0.26196,-0.37427,0.052094,0.061615,-0.25977]],"b":[-0.10107,0.31226,0.10944,0.056763,-0.14746,-0.42505,-0.39185,-0.12585,-0.13892,0.16211,-0.17114,-0.1181,0.43457,0.11786,0.39014,-0.27881,-0.17883,0.18188,-0.30029,-0.37964,-0.06958,-0.1792,-0.31836,0.24951,0.32178,0.069519,-0.02034,-0.42529,-0.14844,0.15808,0.27319,-0.11285,-0.14856,0.25391,-0.42407,0.27808,-0.13062,0.081665,-0.077148,0.060181,-0.18408,0.31543,0.049072,0.37402,0.36694,-0.16052,-0.2749,0.35742,0.35571,-0.38574,-0.032898,-0.46509,-0.34302,0.062012,0.12048,0.095337,-0.11975,0.40161,0.061005,-0.31128,-0.024124,0.098022,0.20056,-0.28662,0.15125,-0.24951,-0.35156,-0.3479,0.42529,0.42261,0.46387,0.32886,0.33008,-0.0077248,-0.21204,0.21655,-0.21313,-0.2915,-0.084106,0.087341]},{"W":[[0.082153,-0.088806,-0.0042992,0.069336,-0.10364,-0.11243,-0.019348,-0.11151,0.10077,0.089539,0.13306,-0.052826,0.084656,-0.02356,-0.033051,0.12573,0.12976,0.16248,-0.1333,-0.11987,0.038513,-0.012245,-0.036011,0.093079,0.087891,0.079468,-0.16687,-0.054871,-0.068481,-0.085815,0.061951,-0.12598,0.10962,-0.13416,-0.16077,-0.10889,0.11981,-0.029327,0.010391,0.065002,0.054047,0.13635,-0.017227,0.07428,0.083313,-0.17603,0.081421,0.0047646,0.03775,0.1377,0.055328,0.037659,-0.031525,0.05188,0.11395,-0.036377,-0.11591,0.017853,-0.0014296,0.076721,-0.11432,0.024811,0.0019274,0.0062447,0.093567,0.073853,0.032379,0.088562,0.094666,0.006691,-0.072571,0.10669,0.038055,0.081726,-0.066284,-0.10925,-0.019562,-0.045319,0.069031,0.14343],[0.073975,0.10345,0.12927,-0.024506,-0.094177,-0.062042,-0.14038,-0.068848,-0.088562,-0.13159,-0.018204,-0.20593,-0.050079,0.029953,0.12396,0.11749,0.12018,0.083496,-0.095642,-0.10638,0.19312,-0.021027,-0.053711,0.094055,0.035492,0.01973,-0.29785,0.014557,0.010361,0.024918,0.078003,0.10687,0.020432,0.042236,-0.07843,-0.06073,0.066833,-0.076599,0.086609,0.057281,0.14148,0.088745,-0.19922,-0.12311,-0.012863,-0.1405,-0.033325,-0.035522,0.068237,0.30225,0.12292,-0.030716,-0.10468,0.041443,0.056458,0.028488,0.059998,-0.049683,-0.0177,0.1925,-0.039825,-0.046997,-0.075867,0.019913,0.071289,0.0055466,-0.023438,0.21143,-0.10382,0.06897,-0.078674,0.0056229,0.053772,0.11176,-0.1073,-0.032227,-0.1604,-0.12347,-0.027481,0.037933],[0.13245,-0.092957,0.24866,0.092041,-0.10236,-0.037567,0.054413,0.11157,0.0059547,-0.11096,0.18457,-0.13477,0.071899,-0.052643,0.019775,0.27002,0.12195,-0.02803,-0.0061035,-0.0071449,0.0010033,0.077759,-0.12646,0.057037,0.014778,0.040344,0.084778,0.099182,0.055969,-0.059662,-0.028397,-0.019119,0.17578,0.054169,-0.13464,0.099426,-0.002203,0.054688,-0.036133,0.028473,0.23267,0.042877,-0.076538,0.047028,-0.062256,0.072815,-0.11377,-0.069885,-0.1416,0.16736,0.060089,0.24634,-0.0016165,0.1012,0.0025063,0.081299,0.10223,0.11322,-0.072754,0.16931,0.040283,-0.070923,-0.024063,-0.025162,0.027298,0.0028248,0.052429,0.13867,-0.12256,0.049225,-0.03598,0.066162,0.084778,-0.20801,0.18396,0.066345,0.075623,-0.11047,0.039978,0.0063782],[0.088196,0.13318,0.13928,0.12939,-0.043976,0.01207,0.0047951,0.012428,-0.099609,-0.02655,0.1759,-0.055756,-0.090393,0.084167,0.11389,0.26245,-0.013939,-0.050873,0.056213,-0.0090866,0.11353,0.071045,0.057068,0.10895,-0.066956,0.0049629,0.13196,-0.042206,-0.080566,0.19653,0.033325,0.0050087,0.0071487,0.049225,0.028351,-0.0059967,0.036438,0.10779,-0.015656,0.15283,-0.021194,0.006176,-0.017288,-0.036285,-0.11035,0.18591,0.023682,-0.11371,-0.090881,0.19482,0.064453,0.11359,-0.1272,-0.01339,-0.062988,0.021225,-0.085693,0.070374,0.015518,-0.018478,-0.01442,-0.1059,0.056793,0.13416,-0.049835,-0.0053711,-0.031921,0.0080719,-0.060425,0.14233,0.0038986,0.11493,0.083313,-0.086853,0.22815,-0.091064,-0.097046,-0.078918,-0.066833,0.16675],[-0.17834,-0.057251,-0.11133,0.12842,-0.027374,-0.097351,-0.063965,-0.010345,0.0495,-0.014908,-0.0030117,-0.076294,0.015671,0.094482,0.066528,0.062927,0.095764,0.13757,-0.15808,0.13159,0.24707,0.050262,-0.14612,-0.057098,-0.066589,0.011276,-0.016357,-0.10742,-0.033813,-0.23157,0.094788,0.15466,-0.052216,-0.11169,0.018387,0.004612,-0.04834,-0.054779,-0.18811,0.010757,0.28394,-0.099487,-0.21851,-0.17749,0.024658,-0.10077,0.039398,-0.07312,0.0032692,0.18103,-0.017899,0.0092316,-0.13513,-0.073914,-0.034576,-0.012619,0.00072813,0.0067596,0.075134,0.045471,-0.051788,-0.11902,0.10321,-0.070679,0.012672,0.063721,-0.013748,0.32178,-0.026947,0.0084839,-0.092529,0.1543,0.028473,-0.052032,-0.11505,-0.022339,-0.006752,0.013191,0.060974,-0.038757],[0.040344,0.060242,-0.024811,0.055756,0.13928,0.18127,0.1759,-0.064026,-0.12469,0.069702,0.012932,0.074585,0.00050497,0.040924,0.085876,-0.057068,-0.036987,-0.096558,0.0068359,0.064941,0.16919,0.094482,0.16223,0.025726,0.048737,0.074951,-0.043823,0.048676,0.066528,-0.11353,-0.15332,0.17798,0.099915,0.066223,0.18689,-0.026749,-0.022964,-0.029373,-0.06543,-0.072205,-0.086975,0.028961,-0.13318,0.020554,0.13538,-0.018982,-0.024429,0.092773,-0.01548,-0.036926,0.13538,0.0068703,-0.010544,-0.025101,-0.078979,-0.027298,-0.017334,0.041351,0.022491,0.019608,-0.047028,0.0354,-0.10852,-0.058685,-0.084167,0.050415,-0.13501,0.021606,-0.067444,0.03653,-0.066589,-0.091431,0.077332,0.059479,0.060181,-0.082581,-0.0070076,0.046021,0.035217,0.03093],[-0.10382,0.015015,-0.14233,-0.0095978,0.042114,0.18896,0.097656,0.0016289,-0.057373,0.0086365,0.0095062,0.096558,0.061035,0.012001,0.15613,-0.12671,-0.024918,-0.014175,0.088684,0.19897,0.12189,0.0011015,0.15723,0.13245,-0.060669,0.024307,0.001976,0.055359,0.14111,-0.052551,-0.1134,0.09668,-0.022537,-0.06131,0.17578,-0.037048,-0.00087404,-0.058838,-0.13843,-0.18005,-0.019196,-0.07019,-0.16504,0.059845,-0.021774,0.022797,-0.082031,0.0038204,-0.013199,-0.070251,0.066101,-0.064392,-0.013969,0.060913,-0.081543,0.090515,-0.025177,0.021484,0.0177,0.12415,-0.044006,0.014534,-0.16199,-0.07782,0.077026,-0.0050049,-0.085144,0.05545,0.058685,-0.057648,0.08374,-0.098633,-0.058502,-0.10938,0.067505,0.12225,0.040283,-0.0040512,-0.10187,0.0058136],[-0.12128,0.10187,-0.067932,0.0024471,0.010086,0.01506,0.077209,-0.059113,-0.024673,-0.0042686,0.11188,0.049011,-0.050201,0.0017338,0.096069,-0.10992,-0.033081,-0.085938,-0.0038929,0.0055962,-0.025848,0.099182,0.10803,0.13647,-0.053558,0.086609,-0.030807,0.0979,0.12396,0.041595,0.072998,0.15186,-0.0067062,0.065674,0.021744,0.069641,-0.054138,-0.054901,-0.12683,-0.085022,-0.046448,-0.030365,-0.12189,-0.087219,0.044922,0.0057182,0.084656,0.092407,-0.031235,-0.15759,0.074036,0.065674,-0.030151,0.066345,0.10107,0.032837,-0.029114,0.096558,0.065063,0.1236,-0.037537,0.11023,-0.12366,0.064758,-0.023926,0.094421,-0.0011606,0.089661,0.0096893,0.025589,-0.045563,-0.14673,-0.042236,0.10529,-0.07196,0.062134,0.015625,0.14746,-0.023407,0.063782],[0.0061951,-0.11536,0.073608,-0.011818,-0.022018,-0.20825,-0.03894,0.10077,0.075317,0.017639,-0.060791,0.011871,-0.015495,-0.1322,0.10809,0.067993,0.026108,0.15601,-0.16345,-0.19519,0.036224,-0.11365,-0.061768,-0.14124,-0.048645,-0.088867,-0.01915,-0.19446,-0.03244,0.062073,-0.0495,0.024475,0.056824,-0.0030289,-0.14429,-0.036133,0.14648,0.15601,-0.087524,0.16785,0.049652,0.063293,0.14319,0.11823,-0.1261,0.037811,-0.045258,-0.044464,-0.12238,0.036316,-0.10065,-0.030029,-0.10431,-0.044891,0.13757,-0.019836,-0.04187,0.055725,0.063232,-0.098389,-0.090698,-0.018768,-0.051056,-0.046936,-0.0032635,-0.098267,-0.046844,-0.061951,-0.037506,0.12189,-0.021103,0.15613,0.11298,-0.13354,-0.052094,-0.12183,-0.14441,-0.125,0.066895,-0.092163],[-0.10492,-0.01535,-0.12238,0.089233,-0.027039,-0.052429,0.12659,-0.055176,0.10254,0.042603,0.076172,-0.10474,0.091614,0.057465,-0.11194,0.02359,0.10034,-0.043213,0.12695,0.02861,-0.13831,0.035065,-0.059265,-0.075562,0.068298,-0.10052,0.079529,0.12622,0.07019,-0.10938,0.093689,0.047363,-0.010674,0.062561,0.14099,-0.028,-0.044586,-0.022537,0.056213,0.044983,-0.030457,-0.0031548,-0.035248,-0.029572,0.071655,-0.065979,-0.10046,-0.0077629,-0.029739,-0.041595,0.0072823,-0.15295,0.060303,0.0063438,0.031647,0.1272,0.0013781,0.093689,0.04184,-0.062683,0.046631,0.13062,-0.079529,-0.10992,0.14087,0.087524,-0.049774,0.068176,-0.0077019,-0.14856,-0.0030174,0.0019102,-0.031586,-0.0092163,-0.15796,0.10248,0.1637,0.12769,0.081787,0.056915],[0.17957,-0.015656,0.055725,-0.035828,-0.096313,0.010735,-0.019775,-0.14587,0.1814,0.079163,0.20068,0.1087,0.066895,-0.056671,-0.026947,0.23181,-0.14258,-0.021347,-0.0092926,-0.044891,-0.013725,0.048828,-0.049255,0.039062,-0.10229,0.10223,0.12177,-0.059998,-0.12646,0.16455,0.064819,0.080383,0.011215,-0.091614,0.013771,-0.04718,-0.056854,0.094482,0.093262,0.10687,-0.016663,0.062317,0.087524,0.056702,-0.10114,-0.16199,0.15771,0.082703,-0.12598,0.13,-0.087097,0.02887,-0.01001,0.03952,-0.071777,0.046204,0.020569,0.013283,0.17883,-0.081848,-0.075806,-0.15015,0.053833,0.064758,-0.010323,0.023285,-0.035339,0.018631,-0.10974,0.023254,0.02182,-0.0085678,0.090088,0.13159,0.11273,0.0086212,-0.073547,0.030594,0.10278,-0.029495],[-0.079285,-0.035583,-0.12,0.06131,-0.055328,-0.20447,-0.19165,-0.18286,0.096558,0.11829,-0.061676,0.0035954,-0.049255,-0.062744,0.015182,-0.11401,0.017319,0.075562,-0.032928,0.023163,0.078552,-0.2135,-0.040894,-0.10333,0.050537,-0.049713,-0.10681,-0.05719,-0.10876,-0.098755,0.0045395,0.0015259,0.013451,-0.09491,-0.0089645,-0.069092,-0.00074577,0.046326,-0.15503,-0.026917,-0.25342,-0.08606,0.041656,-0.012238,-0.10187,-0.091797,-0.0097809,-0.034546,-0.096802,-0.099121,-0.10303,-0.00387,-0.082458,-0.14905,-0.070862,-0.10602,-0.16382,-0.035828,0.016586,-0.06015,-0.060425,0.0040779,0.044983,-0.07135,-0.038574,-0.15137,-0.010941,-0.15002,-0.075684,0.022369,0.092224,0.12256,0.059753,0.15527,-0.19922,-0.04126,-0.04718,-0.018616,-0.15918,-0.060638],[-0.11401,0.013428,-0.11761,-0.11316,-0.10504,-0.059479,0.10992,-0.034943,-0.11414,-0.12622,-0.012108,-0.21191,0.09906,0.032043,0.027115,-0.12659,0.097961,-0.029373,0.11047,-0.11816,-0.16528,0.068237,0.0048943,-0.043396,-0.023148,-0.04538,0.11823,0.046997,0.12683,0.016037,0.069275,-0.070007,-0.055756,0.098572,-0.081665,0.064392,-0.034546,-0.014381,-0.018677,-0.092346,-0.089355,0.079529,-0.17212,-0.059937,-0.041595,-0.09137,0.01329,0.08728,0.020447,0.10577,-0.012367,-0.14197,0.016205,-0.050842,-0.0084457,-0.072754,-0.061981,0.054291,0.090454,0.14392,0.12207,0.031403,-0.010353,-0.091248,0.040466,-0.098633,0.013138,0.0059776,0.049377,-0.01741,-0.071472,0.057739,0.078735,0.034393,-0.065002,0.055023,0.14893,0.13721,0.10266,0.0052147],[0.0077248,0.037811,0.034424,0.074158,0.016479,-0.034546,0.087036,0.024918,0.049896,-0.075073,0.037628,0.001214,-0.047363,-0.059448,-0.068115,-0.19885,0.013649,-0.084717,0.0045624,0.04483,-0.092834,0.09314,0.017593,0.093933,0.038727,-0.0023289,0.029816,0.025223,-0.017532,-0.12201,0.011719,0.033661,0.053558,0.06427,0.16309,0.030563,-0.058533,-0.11304,-0.046753,-0.13013,0.063965,0.045166,0.07251,-0.035553,-0.03241,-0.099243,-0.018265,0.031158,0.024673,-0.055664,0.023529,-0.01683,0.066956,-0.046844,0.11847,0.0005374,-0.029617,0.058685,0.008812,0.0089111,-0.043091,0.082458,-0.11902,-0.013077,0.022827,0.039032,0.067627,0.039703,0.027954,0.036469,-0.10431,0.018127,0.01622,-0.1203,-0.037018,-0.056641,0.058472,0.041077,-0.031494,0.091492],[-0.080322,0.024673,-0.050446,0.041382,-0.15039,-0.062744,-0.10437,0.0014057,0.093994,0.073547,-0.080078,-0.092773,-0.017288,-0.084412,0.092041,-0.13867,-0.030869,0.061981,-0.020935,-0.10278,-0.0672,-0.13403,-0.078552,-0.00030017,0.054291,-0.084839,0.057373,-0.20398,0.0048065,0.069824,0.16443,-0.05954,-0.04776,-0.016678,-0.17676,-0.16309,-0.079773,0.050018,0.036255,0.10858,-0.17065,0.065369,-0.017532,0.025299,-0.080933,-0.15308,0.13123,-0.13074,0.021469,-0.15637,-0.083374,-0.10266,0.0066032,-0.13635,0.15662,-0.19507,-0.030106,-0.079407,0.09436,-0.15869,-0.11145,0.0097275,0.12732,0.077881,-0.19702,-0.072754,-0.10059,0.0073013,-0.024612,0.045593,-0.06488,0.12006,-0.031525,0.063721,-0.11334,0.0015011,-0.0086975,-0.13464,0.13049,-0.13489],[-0.096436,-0.00023472,0.006897,0.11157,0.082825,0.13098,-0.0495,0.030579,-0.16577,0.075439,-0.17065,-0.01413,0.1427,0.14856,0.02655,-0.19519,0.10071,-0.065491,-0.028992,0.043365,0.032471,0.076111,0.21667,-0.039795,0.1203,0.059906,0.097778,-0.040497,0.14453,0.05188,-0.056885,0.16199,-0.052673,0.11707,0.21411,-0.055786,0.041962,-0.18396,-0.054779,-0.12061,0.047882,0.0044327,-0.3208,-0.10632,-0.026764,0.13232,0.014145,-0.04483,0.04837,-0.094482,-0.011482,0.10114,0.1048,0.006073,-0.066101,0.047974,0.090271,-0.040161,-0.17664,0.15735,0.068726,0.10693,-0.11731,0.0578,0.12866,0.02565,-0.16785,0.31274,0.039093,0.023895,0.1377,0.046692,-0.14209,0.033936,-0.02681,0.013206,0.058075,-0.05188,0.01683,0.13232],[-0.047607,-0.066162,-0.082642,0.034393,-0.055634,-0.034912,-0.052887,-0.012558,0.085083,0.16272,0.025314,0.031097,-0.12073,0.086609,0.10443,-0.16211,-0.11945,-0.034821,-0.11359,-0.038055,0.073059,-0.049561,-0.1532,0.043121,-0.0061417,0.03067,0.07605,0.03363,-0.17712,-0.070801,-0.033936,-0.0037231,-0.1123,0.074585,-0.047455,-0.050323,-0.0030937,-0.063477,0.042694,0.038269,-0.22412,-0.098755,0.080505,-0.01162,0.045471,-0.0071297,-0.021729,0.03363,0.054596,-0.19446,-0.045197,-0.15564,-0.11646,0.071533,-0.018005,0.10406,-0.074768,-0.07666,-0.13306,0.016602,-0.095947,-0.025024,0.070374,0.073425,0.050964,-0.084167,-0.015472,-0.15247,-0.035278,0.14087,0.059845,0.041107,-0.026917,-0.070862,0.062561,0.030563,-0.073792,-0.014946,-0.011375,-0.084473],[-0.090637,0.096375,-0.039154,-0.097839,-0.070618,0.080994,0.1322,-0.054413,0.063171,-0.07428,0.049377,-0.007267,0.087646,0.10529,0.00072145,-0.014694,-0.093567,-0.14429,-0.052917,0.15039,-0.017761,-0.050049,0.050598,0.13,-0.081177,0.098816,0.041718,0.053314,0.14795,0.060089,0.092346,0.098633,0.011681,0.032867,-0.086914,0.044922,-0.11731,-0.0095291,0.032593,-0.060577,-0.1203,-0.051849,0.11456,0.074219,0.083252,-0.08197,-0.019485,0.0098114,0.11981,-0.12598,0.10895,0.046204,-0.0233,0.050201,0.03717,-0.030441,0.094177,0.0011292,0.14307,-0.029495,0.10492,-0.039612,-0.10773,-0.045593,0.10291,0.083069,-0.081848,-0.047119,-0.033386,-0.040009,-0.0896,-0.089661,0.093018,-0.054352,-0.10608,0.043488,0.082458,0.055481,0.07605,-0.041443],[-0.11218,-0.052216,-0.055756,-0.041809,0.12067,0.064148,0.13074,-0.083191,0.1073,0.14319,-0.089661,0.03653,-0.065979,0.086243,-0.12482,-0.125,0.13489,-0.14954,0.16516,0.13293,0.095459,-0.023941,0.03183,0.035614,0.032806,0.099548,-0.1076,-0.03891,0.15857,-0.071167,-0.028824,0.08905,-0.051483,0.016449,-0.00914,0.073242,-0.10767,-0.063354,0.13354,-0.027023,0.082031,0.033203,-0.082397,-0.012871,-0.01709,-0.15479,-0.045776,0.13245,0.011406,-0.0052071,0.11224,-0.019989,0.031647,-0.044922,0.059143,0.078369,-0.05426,0.0168,0.07428,0.1394,0.071472,0.081238,0.02829,0.034668,0.083618,-0.0036354,-0.086975,0.02623,0.0016022,-0.021744,0.0027733,0.01207,0.087952,-0.04306,-0.18408,-0.010384,0.041595,0.15198,-0.036804,0.023132],[-0.094971,-0.058167,-0.043671,-0.049866,0.0049629,-0.051178,0.067505,-0.09729,0.010086,-0.10291,0.012932,-0.13428,-0.011086,-0.13257,-0.034698,-0.14783,0.2262,-0.11029,-0.027939,0.042694,0.028259,0.014877,0.062408,-0.065125,0.071472,0.004982,-0.077148,0.017715,0.10583,-0.091431,0.16211,0.056976,-0.06427,-0.027405,0.029572,-0.064941,-0.025391,-0.17883,0.025208,0.023026,-0.0086899,-0.058472,-0.18176,-0.048798,0.02504,-0.072815,0.010849,0.12207,0.093262,0.065308,0.020309,-0.018631,0.13757,-0.081177,0.022812,0.027771,0.090393,0.078552,-0.02417,-0.057892,0.025574,0.046967,-0.012268,-0.053192,0.086975,0.01889,0.079529,-0.0042458,0.065308,-0.024872,-0.12213,0.04068,-0.089905,0.10022,-0.10046,0.00076342,0.13794,0.11053,0.1153,0.09491],[-0.13391,0.086975,-0.02858,-0.043793,0.057861,0.15735,0.013626,-0.11975,0.10022,-0.02774,0.027634,0.024078,0.039032,0.12134,-0.12335,-0.16003,-0.0098114,-0.025528,0.047363,0.017838,0.069275,0.024002,-0.092407,-0.023132,-0.0097961,0.062378,-0.0036201,0.13916,0.011871,-0.03241,0.11121,0.07605,-0.038544,0.048218,0.13635,0.045044,0.069702,0.038361,0.060944,-0.011971,0.073242,0.020462,0.13123,0.10657,0.062073,-0.076721,0.12744,-0.06366,0.10461,-0.015747,0.096313,-0.025177,-0.0046768,0.10681,0.042297,0.05304,0.094238,-0.095093,0.041351,-0.0046959,0.11731,-0.023254,0.05072,0.060364,0.088501,0.13745,0.05722,-0.11572,0.097473,-0.023422,0.0024776,-0.13928,-0.016724,-0.043793,0.074402,0.1073,0.15503,0.14941,-0.05719,-0.028625],[0.10718,-0.045227,0.12329,0.066528,0.11243,-0.037323,-0.17297,-0.080444,0.14868,0.10443,0.1239,0.12305,-0.14136,-0.088623,0.017776,0.029221,0.024887,0.073914,-0.086609,-0.035614,-0.034149,-0.038422,-0.072754,-0.12335,-0.034088,0.10254,0.16003,0.070435,-0.1759,-0.062683,-0.048737,-0.12,0.0057335,-0.077393,-0.019989,-0.1167,0.038086,0.073486,0.10773,0.18555,0.026733,-0.051239,-0.041199,0.018845,-0.085388,-0.046844,0.015594,0.047882,-0.0063438,-0.0030594,-0.045959,0.068726,-0.088928,0.040833,-0.094482,0.021973,-0.13184,-0.10175,-0.042938,-0.00063133,0.016571,-0.048615,0.05896,0.0056763,-0.086121,-0.017654,-0.010933,0.051605,0.021194,-0.059174,0.0026226,-0.020309,0.0041389,-0.096619,0.13794,-0.080444,0.097229,0.049652,-0.075989,-0.13281],[0.005249,-0.063538,0.019318,-0.033936,0.0043106,-0.13525,-0.15515,-0.13892,0.044708,0.0448,-0.18408,-0.076355,-0.044952,-0.017624,0.057007,-0.091736,-0.067749,0.0079346,-0.11194,-0.062866,0.0020924,-0.018814,0.12201,-0.0032673,0.07843,-0.064392,0.016388,-0.17834,0.065857,0.10431,0.029007,0.11572,0.084351,0.045776,0.026901,-0.14697,-0.093262,-0.058594,-0.069763,-0.05957,-0.21741,-0.057404,-0.030579,0.0093079,0.058563,-0.0014439,0.080994,-0.0070877,-0.032013,-0.0014744,0.063904,-0.086365,-0.14062,-0.07251,-0.020691,0.010483,0.024918,-0.084167,-0.10681,-0.14905,-0.037537,-0.041534,-0.0053749,-0.091431,-0.011444,-0.12683,-0.13806,-0.088013,-0.004261,0.16675,0.064087,0.038788,0.020081,0.14307,0.0059052,-0.10187,-0.177,-0.12695,-0.11151,-0.15881],[-0.076416,-0.063354,0.087036,0.13757,0.15442,0.12634,0.11926,-0.004776,-0.094299,0.0061111,-0.037231,0.033234,-0.085144,0.078552,0.081177,-0.14099,0.15833,-0.077026,0.020981,0.14832,0.23914,0.031372,-0.045898,-0.041779,0.066467,0.036926,-0.0026855,-0.02832,0.094604,-0.11658,-0.11359,0.15051,0.10315,0.10614,0.17981,0.0033703,0.15088,-0.098877,-0.026566,-0.0035191,0.23718,-0.15051,-0.19543,-0.074524,0.12457,0.059814,0.13806,0.081726,-0.069336,0.1427,0.1076,0.16821,0.078613,-0.050995,0.0035706,0.0051994,-0.06543,-0.0021667,-0.11542,0.067322,-0.040985,0.068237,-0.16821,-0.045135,0.074402,0.057129,0.050903,0.21362,0.039612,-0.064392,-0.10901,-0.0080414,-0.14417,-0.18884,-0.20386,-0.033051,0.19397,0.20874,-0.025711,-0.065125],[-0.14709,-0.037201,-0.15442,0.033264,0.05011,-0.027817,0.12915,-0.092896,-0.13281,-0.015213,-0.07605,-0.017273,0.12488,-0.082458,-0.048676,-0.023483,-0.056641,0.029785,0.0068398,-0.015594,-0.18872,-0.065674,0.050812,0.034943,0.11218,0.1048,-0.0098648,0.029327,0.066895,-0.050781,0.041168,-0.21375,-0.14111,0.11603,-0.057831,0.1156,-0.014565,-0.04248,0.12433,-0.12109,-0.067566,0.02916,-0.029739,-0.10205,0.030655,-0.065125,-0.024521,0.088013,0.017319,-0.039581,0.020142,0.025253,0.12134,0.049652,-0.024994,-0.028687,0.12262,0.10919,0.077759,-0.053192,0.11499,0.017593,0.032623,0.06543,0.033081,-0.04837,0.073792,-0.13257,0.087769,-0.17334,-0.019684,-0.14758,-0.035553,0.0098801,-0.15491,-0.08252,0.12646,0.11401,0.0086517,-0.052094],[-0.095947,0.021973,0.055145,-0.025681,-0.04599,-0.064636,-0.059692,0.14441,-0.044312,0.078674,-0.23828,0.1355,0.033325,0.018433,0.049774,-0.21289,-0.046875,0.063965,0.21448,0.011368,-0.016113,-0.052765,-0.052063,-0.014938,-0.052216,-0.15149,-0.20874,-0.085449,0.0044708,0.03714,-0.11316,0.17175,-0.177,0.17725,0.13477,0.0038719,-0.034882,0.0383,0.14697,-0.038818,0.15845,-0.12134,-0.05368,0.08075,0.064575,0.20752,-0.01947,-0.010277,0.10828,-0.033295,0.010857,-0.23804,-0.06131,-0.019775,0.042603,0.084778,0.033173,0.12732,-0.074036,-0.080566,0.13879,0.024155,-0.0085144,0.091614,0.16614,-0.1123,-0.10065,-0.10358,-0.072083,0.094299,0.16699,0.010567,0.081726,-0.16956,-0.00023878,0.014366,-0.11206,-0.048706,0.013138,0.052704],[-0.073181,0.10266,-0.0044136,-0.011932,0.020706,0.11066,0.018036,0.069763,-0.022308,0.056854,-0.0086899,0.16919,-0.0042305,0.14441,0.079468,-0.18628,-0.071899,-0.20557,-0.044556,0.10028,0.043793,0.022095,0.17639,-0.026688,-0.011124,0.016312,0.086365,0.0089645,0.12561,-0.046722,-0.19446,0.065063,0.025742,0.05127,0.13538,0.04837,0.07489,-0.011566,0.040161,-0.088074,-0.1626,-0.075378,-0.0030308,0.10992,-0.0072327,0.17322,-0.0057106,0.044037,0.023895,-0.087341,0.12988,-0.025085,0.027481,-0.039215,-0.16125,0.046173,0.13086,0.043701,-0.0084839,-0.068359,0.063477,-0.075378,-0.18481,-0.019226,-0.045013,0.10913,-0.17139,0.059021,0.10187,-0.11603,0.093445,-0.096375,0.027542,0.11572,0.066528,-0.012665,0.094116,0.050446,-0.087219,0.10175],[0.045074,0.046631,0.20703,0.099792,-0.0755,-0.039551,-0.053375,-0.023315,0.15344,0.091736,-0.051239,0.057159,0.087646,-0.090576,-0.009697,-0.11749,-0.010071,-0.029221,-0.00058556,-0.064941,-0.1322,-0.076538,-0.042236,-0.10406,0.012596,-0.08844,-0.11047,-0.052917,0.052643,-0.006237,0.088318,0.23682,0.12244,-0.020004,-0.13464,0.027832,0.045105,0.025696,0.15515,-0.019531,0.22607,-0.1012,-0.12103,0.076904,-0.0060005,0.060486,-0.016342,-0.025894,-0.04184,-0.11395,0.073975,0.09198,0.070496,-0.051636,0.22705,0.028091,0.046539,-0.010201,-0.10321,-0.15137,0.063721,0.15161,0.017654,-0.016159,0.017868,-0.12708,0.036377,-0.098389,0.019241,-0.0096512,0.07489,-0.020126,0.011353,0.058258,-0.042206,0.13135,0.17065,0.11096,0.044495,0.048981],[-0.087585,0.112,0.0080261,-0.069092,0.03006,0.0087357,0.15942,-0.16431,-0.034271,-0.016586,0.029419,0.0058746,-0.016129,0.072815,0.055206,-0.21204,0.16284,0.06189,0.13586,0.16467,0.041901,-0.040558,-0.012543,0.061432,0.082214,0.044952,-0.15125,0.12988,0.052765,0.035492,0.16003,0.15051,0.1109,0.10248,0.19568,-0.014465,0.090637,-0.044769,0.065491,-0.094482,0.1731,0.1026,-0.15869,0.075562,-0.04657,-0.14099,-0.078735,0.047302,-0.042908,-0.12042,-0.01709,0.052887,0.014534,-0.020935,0.084106,0.042572,0.00095463,0.057953,-0.049683,-0.036072,0.025909,0.029358,0.042847,-0.12781,0.044281,0.047455,-0.069946,0.15747,-0.031677,-0.054108,-0.070007,-0.070801,-0.039703,-0.13086,-0.082886,0.036652,0.18909,0.17041,0.0979,0.064087],[0.018906,0.14343,0.04422,-0.11511,0.039673,-0.011795,0.076294,-0.11816,0.11444,0.081055,0.016251,0.049164,-0.062073,0.075745,-0.12012,-0.11554,0.030701,-0.10614,0.039337,0.22205,-0.032471,-0.015015,-0.020538,0.096252,-0.072144,0.05368,0.024063,0.061188,0.1355,-0.055847,0.12073,0.031952,-0.12372,0.10199,-0.064697,0.047577,0.034088,-0.14221,-0.030731,-0.018112,0.079224,0.017731,0.095398,0.063232,0.074585,-0.12238,0.10706,0.093811,0.055908,0.0082626,-0.050568,-0.031738,0.0098648,0.037231,0.12524,0.099609,0.075317,-0.054657,-0.018661,0.048676,0.039612,-0.050934,0.060028,-0.0121,-0.042877,0.097412,0.052673,-0.15222,0.091858,-0.11395,0.070068,0.065857,0.10187,0.079895,-0.027786,0.07428,0.11145,0.10101,-0.013626,0.057617],[-0.085632,-0.045166,-0.15295,-0.10565,-0.028687,0.15637,0.10144,-0.16748,-0.088745,0.048126,-0.041077,-0.034485,-0.018265,0.0035038,0.0097198,-0.11774,0.099304,0.025055,0.11658,0.095459,-0.0034027,0.01889,-0.060303,0.062164,0.0093536,-0.01712,-0.056396,0.084473,0.11505,0.034241,-0.03241,0.097473,0.0013189,-0.052399,0.0083313,0.076904,-0.078125,0.034668,0.021866,-0.019684,0.096069,0.055328,0.0062943,0.075684,-0.022202,-0.14844,-0.038025,0.079041,0.10382,0.029495,-0.012405,-0.022614,0.010048,0.093506,0.0022888,-0.022247,0.12091,0.041779,-0.042267,-0.039917,-0.049713,0.15332,-0.1488,0.060486,0.11292,0.014763,-0.030945,0.18274,0.067383,0.078186,0.082092,-0.11627,0.068298,0.052582,-0.14136,0.071411,0.034363,0.020996,-0.034424,0.006443],[0.13696,-0.074463,0.17261,0.13635,-0.03772,-0.093567,-0.072021,-0.024551,-0.073975,-0.02504,0.16931,-0.048065,-0.056763,-0.056335,-0.1394,0.21521,0.038696,0.0067863,0.058746,-0.06427,0.14282,0.15137,0.036255,0.077881,-0.079224,0.092651,0.038116,0.013458,-0.056458,0.075928,-0.14697,-0.028122,0.09491,-0.080017,-0.074707,-0.083862,-0.052979,0.15857,-0.052765,0.063232,0.18164,0.12659,0.10394,-0.085022,0.0044174,0.036499,0.033356,0.091919,-0.051788,0.093872,-0.030014,0.18372,-0.0755,0.14221,-0.13062,-0.10455,0.056244,0.10815,0.12366,0.072205,-0.084412,-0.15771,0.065002,0.021561,-0.010582,0.1405,0.0078964,-0.0066452,-0.074524,-0.023697,0.11359,0.019547,0.077454,0.022858,0.35669,-0.05246,-0.11987,-0.07074,-0.028473,0.00737],[-0.093384,-0.050385,-0.031372,0.04953,-0.025345,0.13696,0.31348,0.014702,-0.068481,-0.042114,0.27368,0.031921,0.090271,0.012939,-0.14905,0.39111,0.23816,0.012535,-0.099487,0.18823,0.37231,0.14685,-0.14001,0.04245,-0.10126,0.066833,-0.069946,0.061493,0.16113,-0.11823,0.0040131,0.34277,0.082458,-0.05304,0.088867,-0.11377,0.013245,-0.094543,-0.02301,0.031494,0.46924,0.083313,-0.35986,-0.20605,-0.043396,-0.18506,0.16711,0.0064278,-0.029388,0.41553,0.09906,0.38672,0.14807,0.0289,0.17139,0.02887,-0.069946,0.069458,-0.058136,0.14246,-0.043427,0.12854,-0.18262,-0.0062752,0.10406,0.19702,-0.0035572,0.54736,-0.0849,0.0058174,-0.21606,0.0045319,0.017441,-0.061707,-0.18115,-0.02652,0.070862,0.29395,0.072388,-0.028183],[-0.074829,0.018982,-0.028366,-0.028351,0.099854,0.0093155,0.038361,-0.08667,-0.032715,0.062012,0.0012827,0.0035706,0.12683,-0.052734,0.0045853,-0.11377,0.12158,-0.085449,0.063293,0.072754,-0.07196,-0.048187,-0.096863,-0.049408,0.061371,0.02446,0.069641,-0.049133,0.057159,-0.1676,0.062805,0.066833,-0.11456,0.13196,0.030441,0.12463,-0.032257,0.001482,0.094055,-0.090393,0.030029,0.078735,-0.18799,0.068604,-0.052368,0.037842,-0.091309,-0.027573,0.11725,-0.073486,0.13208,0.058624,0.18542,-0.08374,0.068481,-0.0061264,0.067139,-0.058563,0.070129,0.041901,-0.020676,-0.047241,0.025314,-0.06842,0.11652,0.039581,0.017227,0.036224,0.0066147,-0.071167,-0.09967,0.044281,-0.050507,0.027451,-0.1311,0.090027,0.15649,0.0052414,0.096802,0.034943],[-0.12854,0.068604,-0.019226,0.07959,-0.041626,0.17651,0.14246,0.044556,-0.005619,-0.0018034,0.074341,0.17139,-0.012581,0.021072,0.12732,-0.029053,0.12842,0.012123,-0.026825,0.086487,-0.00013816,0.095459,0.097107,-0.060181,0.027832,-0.063721,-0.057861,0.13672,0.015717,0.0023346,-0.080627,0.069824,-0.02092,0.12512,0.097595,0.12152,0.049561,0.0032444,-0.15173,-0.11499,-0.044342,-0.026627,-0.11719,0.03949,0.13501,0.088318,-0.095215,-0.035156,0.11694,-0.033691,0.07019,-0.065979,0.053619,0.074402,-0.09375,0.10785,0.10565,-0.056061,-0.052246,0.032623,0.067993,0.010544,0.052338,-0.14246,-0.022568,-0.052612,-0.042938,0.13086,0.0030632,0.053833,-0.075195,-0.0072136,-0.072693,-0.047424,-0.15417,-0.046631,-0.055817,0.11914,-0.11914,0.088379],[-0.042847,-0.059509,0.097107,0.15149,-0.075439,0.017471,-0.046082,0.048218,0.080627,0.086365,0.00085783,-0.13342,0.050598,0.083313,0.028809,0.14844,-0.074646,0.11926,-0.11188,-0.12561,-0.0057793,-0.13806,-0.051636,-0.064392,-0.060242,-0.010536,-0.081055,-0.057434,-0.06958,0.04657,0.12177,-0.026901,0.12042,-0.016251,-0.1087,-0.087402,0.069824,0.09613,-0.061401,0.011497,0.12109,0.022675,-0.050049,-0.006916,0.003006,-0.096802,-0.026352,-0.11371,0.084961,-0.091858,0.037384,-0.050903,-0.072876,-0.10034,-0.034882,-0.021942,-0.01387,-0.075256,-0.08197,-0.018097,-0.082825,0.016754,0.11047,0.0046806,-0.047607,0.014656,-0.086304,-0.067078,-0.081116,0.013313,0.13245,0.083679,0.056763,-0.030609,-0.091553,0.087585,-0.12299,-0.10718,0.11981,-0.092041],[0.1217,-0.10291,0.13074,0.097351,-0.16919,-0.025299,-0.079529,-0.067688,0.14868,0.063843,0.051056,-0.054474,-0.072327,-0.079834,0.031677,0.11798,-0.077576,0.15271,-0.0052338,-0.14075,0.098694,-0.12024,-0.045746,0.057526,-0.15369,-0.080627,0.021774,-0.087036,-0.19177,-0.0055046,0.02977,-0.04126,0.03714,-0.022339,-0.047455,-0.041687,0.040375,0.053467,0.054443,0.14746,-0.064392,-0.055023,0.043732,-0.051178,0.055023,-0.01384,0.054474,-0.10559,-0.052094,-0.058105,-0.18909,0.10931,-0.17249,-0.16382,-0.010559,-0.074097,-0.068481,-0.053497,-0.038788,-0.1059,-0.001256,0.032227,0.090576,0.049561,0.061401,-0.12988,-0.023453,-0.08197,0.033051,-0.052277,0.072449,-0.033691,0.069153,-0.0095444,0.083374,-0.087708,0.0023556,-0.17456,-0.026215,-0.025818],[0.050751,-0.15442,-0.0073242,0.0016756,-0.039001,0.076782,0.0030994,-0.03302,-0.017059,-0.13708,0.1571,-0.15051,-0.025391,-0.088684,-0.14355,0.2041,-0.0061989,0.054901,-0.083008,-0.097656,0.012962,0.051514,-0.045349,0.10901,0.080994,-0.076111,-0.055847,0.037476,-0.077759,0.10156,0.11621,-0.021866,-0.050964,-0.10968,-0.061615,-0.0096054,-0.063171,0.080017,-0.12915,0.0072746,0.061218,-0.0035744,0.17175,-0.069275,0.090027,-0.033203,0.14001,0.048981,0.016327,0.063354,-0.034943,-0.028275,0.023468,-0.044067,-0.025909,-0.15503,0.032806,-0.055725,-0.024399,0.0071831,-0.10553,-0.051178,-0.080811,0.13684,-0.19385,0.11548,0.063477,-0.15686,0.084717,0.11694,-0.11334,0.041229,0.07373,0.15173,0.23059,-0.19995,-0.14148,-0.13257,-0.015625,-0.021439],[-0.1604,0.13306,-0.34888,-0.15833,-0.072876,-0.086243,0.14172,-0.089539,-0.12756,-0.075745,-0.098755,-0.090576,0.098022,0.024475,0.11566,0.0058746,-0.0401,-0.151,0.17981,-0.29321,-0.11053,-0.011787,0.048218,0.071228,0.0093918,-0.059479,0.015083,-0.023651,0.013756,0.015244,0.08136,-0.18274,-0.27148,-0.023849,-0.14697,0.069031,-0.15796,-0.12311,0.0088272,-0.14014,0.03833,0.088745,0.0046654,0.12878,-0.07428,-0.096924,-0.16919,0.098938,0.10223,0.045837,-0.045166,-0.17896,0.12415,-0.046875,-0.059814,0.09552,-0.065002,0.030823,0.058441,0.10681,0.020905,-0.10199,-0.060486,0.018066,-0.025513,-0.018723,-0.18689,-0.19104,0.064697,-0.017609,0.093628,-0.19873,0.012421,-0.019485,-0.11047,0.010109,-0.027618,0.1571,-0.060974,-0.040405],[0.11029,-0.11835,0.11102,0.008316,-0.099915,-0.11737,0.023621,0.11786,0.027374,-0.044189,0.021393,-0.20117,-0.017502,0.027451,0.11072,0.26953,0.24976,0.0011978,-0.14404,-0.020798,0.042114,0.08374,0.24658,-0.02739,0.11066,0.01255,-0.14709,-0.080322,-0.039948,0.015511,0.043732,-0.11072,0.14941,-0.0019341,0.14209,-0.067139,0.17957,0.067017,0.0080948,0.12463,0.1687,0.032806,-0.18713,-0.096619,-0.04834,0.24292,-0.019684,0.022934,0.060699,0.23328,0.10681,0.043274,0.016464,-0.079651,0.05069,-0.032227,0.039368,-0.098816,0.097046,0.062469,0.063782,-0.11578,-0.1059,0.061829,-0.10101,0.058075,-0.10522,0.13867,0.063293,0.10229,-0.098389,-0.041748,0.043579,-0.024612,-0.077209,-0.11609,-0.044891,-0.14062,0.056458,-0.014549],[-0.084412,-0.015511,-0.02037,0.047638,0.069702,0.091187,0.17017,0.10352,-0.083313,-0.046112,0.040497,0.11072,-0.061615,-0.064636,0.045471,0.05246,-0.086121,-0.13928,0.040649,-0.02565,-0.010826,0.13892,0.12793,-0.049866,0.047729,-0.054077,0.085815,-0.040405,0.026505,-0.032318,-0.063416,0.13684,-0.085144,0.078552,0.18152,0.038605,-0.00097942,-0.099182,-0.0093155,0.0032387,0.12915,-0.060364,-0.018234,0.082092,0.01889,0.1427,-0.022354,0.10437,-0.06842,0.099365,0.15369,-0.053253,-0.084045,0.018356,-0.15039,0.083069,0.11169,0.0083847,0.058624,0.094116,0.024963,-0.063965,-0.023834,-0.13049,0.057495,0.047333,-0.14343,0.12439,0.058075,0.05777,0.1106,-0.14514,-0.093689,-0.1073,-0.060547,0.084595,-0.063416,-0.049408,-0.02002,0.11438],[0.037903,-0.10547,-0.11584,0.021744,0.082275,-0.024628,0.061676,-0.21387,0.14734,-0.10272,0.051056,0.041351,-0.021194,0.012688,-0.31079,0.27417,0.17712,0.041138,0.07605,-0.14563,-0.027176,0.11346,-0.0081177,-0.053589,0.028305,0.03244,-0.20093,0.14795,-0.17578,-0.078918,0.051819,0.012436,-0.068115,-0.10168,-0.18127,-0.056885,-0.010025,-0.11719,0.22192,0.17285,0.1886,0.0043755,-0.062225,-0.11346,0.041809,-0.13843,-0.021439,-0.10199,0.086731,0.27661,0.14868,0.14917,-0.081848,-0.13684,-0.063538,0.066406,0.086487,0.077881,-0.0035477,0.093384,-0.098022,-0.078003,-0.065247,-0.078491,-0.11475,0.19714,-0.04364,-0.024551,0.065796,0.038361,0.016388,-0.0053406,0.15906,0.075256,0.057983,-0.065979,-0.010338,0.09375,0.12756,0.073669],[-0.1615,0.064575,-0.0035934,-0.052094,0.082397,0.11804,-0.039642,-0.1015,-0.073669,-0.021561,0.090576,0.16028,0.03775,0.10437,-0.12915,-0.060211,-0.05127,-0.1051,0.075867,0.11029,0.012894,0.083496,-0.00014067,0.13696,0.028595,0.038818,-0.0066605,0.064026,-0.04422,-0.04776,-0.090942,-0.017014,-0.1488,0.10199,-0.042847,0.02298,-0.023895,0.018936,0.083618,-0.12445,0.12854,-0.083252,-0.042664,0.11395,0.12976,-0.14856,-0.080505,0.078491,0.11511,-0.10101,0.016006,-0.063599,0.11108,0.054077,0.098206,-0.0018148,-0.071472,-0.025345,-0.05426,0.012604,0.080383,-0.051483,-0.079346,-0.15234,-0.049255,-0.037201,-0.060944,-0.053986,0.044861,0.035248,0.087585,-0.014267,0.017059,-0.030975,-0.024536,-0.028687,0.15247,-0.038635,-0.10394,0.061554],[-0.077271,0.054688,-0.17407,0.049652,0.09491,-0.09375,-0.065369,-0.062012,-0.0755,-0.080139,-0.046448,0.13501,-0.059692,0.035889,0.10498,0.042175,0.023239,-0.057617,0.1084,-0.23987,-0.24243,0.093018,0.1626,-0.088379,0.11658,0.03537,-0.010323,0.15662,0.004261,-0.031494,0.064941,-0.30957,-0.20557,-0.0070953,-0.015747,0.081726,-0.062622,-0.092834,0.022156,-0.11353,-0.35205,-0.085999,-0.04248,-0.039032,-0.062042,0.19958,-0.038147,0.073792,-0.060242,-0.032806,0.053192,-0.077515,-0.057159,0.0087738,-0.12805,0.10461,0.10553,0.075012,0.057953,0.064636,0.14148,-0.038696,-0.041107,-0.020508,-0.10376,0.0030575,-0.050018,-0.427,-0.015823,-0.073608,-0.046844,0.046173,0.097168,0.00028181,-0.011406,-0.043213,0.0030766,-0.034912,-0.067017,-0.028976],[0.15503,0.069336,-0.058411,0.023636,-0.05307,0.0098114,-0.014099,0.022079,-0.038757,-0.050903,-0.16003,0.19592,-0.088806,0.0060692,0.13611,-0.12732,-0.023361,-0.13513,0.13599,-0.044983,-0.10309,0.085327,-0.019974,0.098694,-0.05069,0.086487,0.15649,-0.032166,-0.092529,0.093201,-0.13599,0.0032425,0.0037308,-0.055573,-0.14917,0.061523,0.0078812,0.038574,0.052155,-0.095398,-0.2583,0.033661,0.029129,0.16333,0.14197,0.14502,-0.080444,0.1864,-0.037842,-0.086609,0.017792,-0.15454,-0.17603,0.12091,-0.13428,0.10413,0.038116,-0.095947,-0.035675,-0.047852,0.14587,0.027435,0.028732,0.028717,0.064758,-0.16516,-0.083496,-0.17432,0.12756,0.031036,0.075562,0.10638,-0.076965,0.097778,0.16577,0.019196,-0.038788,-0.1615,-0.16736,0.0336],[-0.10016,-0.19983,0.21167,-0.0047226,0.25366,0.10059,0.28516,0.018066,-0.046356,0.049072,0.14587,0.11847,-0.12549,0.11261,-0.20667,0.13525,-0.017441,0.21594,0.21521,0.33643,0.26733,0.13049,-0.034912,0.12366,-0.088623,0.010872,-0.27759,-0.028366,0.13159,-0.098267,-0.052216,0.32349,0.11572,-0.050385,0.29468,0.014946,0.097229,-0.12915,0.055969,0.062347,0.36133,0.031372,-0.20654,-0.16907,0.061157,-0.17737,0.33545,-0.05835,-0.13257,0.087402,-0.070557,0.42871,0.2395,0.054932,0.030273,-0.10248,-0.095581,-0.10712,0.074402,-0.015434,0.048828,0.082092,-0.1759,0.09845,0.050873,0.11829,0.15173,0.46631,-0.10547,0.043549,0.014755,-0.055511,-0.09906,-0.02594,-0.11102,0.038239,0.069824,0.097412,0.10944,0.061981],[0.037659,0.0031567,-0.078369,-0.11407,0.039307,0.11859,0.12598,-0.10767,0.13171,-0.18665,-0.02742,-0.11475,-0.095947,-0.12262,-0.1626,0.071045,-0.0075188,0.018494,0.063416,0.029312,-0.12073,0.11725,-0.0020657,-0.094177,-0.064087,0.063721,0.061401,-0.025482,0.022171,-0.079163,0.16321,-0.032166,0.00040269,0.077148,-0.038727,0.12305,-0.077332,-0.049225,0.019775,-0.14282,-0.17786,0.055511,0.0081787,-0.085693,-0.041229,-0.02449,-0.071716,0.086182,-0.063843,-0.02507,-0.047852,-0.198,0.036072,0.12671,0.15356,0.07196,0.13623,-0.038818,0.13171,0.11157,-0.064636,-0.082214,0.021622,-0.013145,-0.078552,-0.059204,0.12842,-0.15051,0.014336,-0.16089,0.060089,-0.11536,0.083374,0.0044098,-0.05481,0.04892,0.023254,0.031982,0.16785,-0.058594],[0.13831,-0.020493,0.052185,0.12561,-0.039703,-0.16187,0.05835,0.031738,0.11615,-0.058014,0.14465,-0.020569,-0.01297,0.019669,0.016037,0.10522,0.10315,0.11737,-0.052246,-0.01239,0.059875,-0.068665,-0.067566,0.045105,-0.07605,0.059052,-0.13147,-0.017838,-0.12329,0.11798,0.11621,-0.013985,0.026917,-0.12524,-0.14612,-0.079773,0.14722,0.011864,0.06897,0.14172,0.052856,-0.090027,0.019531,-0.010841,0.034424,0.050507,0.012321,0.065857,0.0014277,0.15369,-0.059875,0.11865,-0.038422,-0.026917,-0.019257,-0.11292,-0.037231,0.064392,-0.11218,-0.096741,0.016785,-0.025909,0.020874,0.077759,-0.089661,0.11755,-0.04483,-0.050293,0.02774,-0.04541,-0.00028801,0.063965,-0.033905,0.081787,0.01947,-0.068787,-0.091064,0.045044,0.077148,-0.094727],[0.027359,0.057404,0.061127,0.067566,-0.030899,0.07373,-0.13574,-0.08429,0.012589,0.16174,-0.1012,-0.023315,-0.0086899,0.14771,-0.012733,-0.19531,-0.19275,-0.065735,-0.050842,-0.023331,-0.11407,0.065186,0.084656,0.063293,0.10736,0.073486,-0.023773,-0.016281,-0.16199,0.11652,-0.056305,0.0086365,-0.13843,0.09314,-0.12177,-0.025467,0.0066948,0.080566,-0.029572,-0.049561,-0.31885,-0.055542,0.040344,0.086914,0.053986,0.025101,0.043274,0.094177,-0.021454,-0.17676,-0.094055,-0.30908,-0.19421,0.097473,-0.092896,0.10071,0.040985,-0.042358,-0.07843,-0.19617,0.10962,-0.031281,-0.043091,0.026947,0.07019,-0.21069,-0.13074,-0.26172,0.042786,0.071533,0.055847,-0.031403,0.10669,-0.061371,0.008316,0.10608,0.020294,0.048126,-0.065491,0.026855],[-0.08252,-0.022522,0.027435,0.098511,-0.036774,0.031143,-0.05719,-0.059784,0.0056038,0.16748,-0.067749,0.067017,0.00097275,0.071289,0.021149,-0.022873,0.03302,-0.058685,-0.11182,-0.043121,-0.081177,-0.10315,-0.25928,0.11749,-0.0054626,-0.0053749,-0.061096,-0.13367,-0.23792,-0.057281,-0.095154,0.11945,-0.02272,-0.029343,-0.16016,0.042877,0.056976,-0.057068,0.10046,0.1615,-0.091675,0.06488,-0.038239,-0.037109,0.10193,-0.056244,0.13647,0.058502,-0.16394,-0.093506,-0.15649,-0.0036449,-0.16113,-0.20349,-0.098267,-0.1004,-0.14771,0.10419,0.041321,0.048981,-0.092407,-0.27197,0.0014257,0.0802,-0.037598,0.032288,-0.10022,-0.047058,0.092102,0.06488,0.11121,-0.0075378,-0.00086784,-0.081299,-0.11517,0.0070992,-0.20361,-0.2522,-0.027512,0.028915],[-0.023407,-0.12195,0.033966,0.12158,-0.10687,-0.044159,-0.01384,-0.19299,-0.16992,0.096069,-0.15881,0.059326,-0.0034847,0.061005,0.14209,-0.23926,-0.050232,-0.081055,-0.1145,0.051575,-0.11548,-0.030502,0.15442,-0.0271,-0.002573,-0.03241,-0.003849,-0.028336,-0.080872,0.031494,0.005043,-0.01918,-0.04715,0.075623,-0.10242,-0.11646,-0.058716,-0.091003,-0.18152,0.10437,-0.29468,-0.077026,-0.090759,-0.067078,0.027634,-0.032898,-0.013962,0.069214,-0.0033226,-0.08197,0.018723,-0.021011,-0.050385,0.085876,0.049469,0.036591,0.054993,-0.093018,-0.090637,-4.0531e-06,0.053406,0.067078,0.035645,-0.022263,0.029892,-0.080627,0.0082626,-0.11511,-0.0080185,0.046722,0.095032,-0.035034,-0.021057,0.15173,-0.042236,0.059967,-0.12878,-0.11078,-0.17847,-0.098145],[-0.16382,0.042267,-0.026993,-0.053802,0.035522,-0.041199,0.048431,-0.19824,0.1886,-0.10602,0.11633,-0.12537,0.13611,-0.094055,0.041534,-0.0087891,0.093079,0.066284,-0.18945,-0.15259,-0.15076,-0.018372,-0.017395,-0.06543,0.11493,-0.0035419,0.02887,0.10699,0.042297,-0.072144,0.22583,-0.056122,-0.24438,-0.051544,-0.10223,-0.11133,0.050232,-0.022781,0.035065,0.14673,-0.22864,0.033264,-0.016052,0.07959,-0.10083,-0.077454,-0.032715,-0.041718,0.071472,-0.034546,0.073853,-0.22278,0.039917,0.010857,0.20618,-0.014877,-0.061798,-0.033447,0.065613,-0.13501,0.057404,-0.053253,0.22473,-0.030457,-0.14355,0.080139,0.10541,-0.14636,-0.078613,0.024796,-0.044952,0.26855,0.058533,-0.044647,-0.21777,-0.012978,0.16638,0.1698,0.047699,0.089539],[-0.072083,0.0336,0.075623,-0.057129,0.1073,0.14844,0.086609,0.038696,0.078064,0.16077,0.0069046,-0.0014362,-0.051056,0.10388,-0.053925,-0.02475,0.090759,-0.02092,-0.081665,0.23254,0.23816,-0.015068,-0.0098343,-0.0096054,0.017822,-0.057281,0.117,0.085571,0.050659,-0.14868,-0.092468,0.24048,0.17578,0.01152,0.16748,0.019409,0.16028,-0.0037155,-0.13184,0.0034771,0.066711,-0.033051,-0.12683,-0.012848,0.043304,-0.083862,0.14807,0.10425,-0.082092,-0.024765,-0.070923,0.12103,0.21143,0.0058403,0.078979,-0.03537,0.12817,-0.083801,0.003231,0.059143,0.098022,0.14819,0.061005,0.024765,0.094421,0.0029659,0.055634,0.32349,-0.036774,-0.024017,0.044617,0.032166,-0.14014,0.030121,-0.13281,-0.03598,0.19348,0.23145,-0.078064,0.093689],[0.1048,0.151,-0.14294,-0.070557,0.032776,0.073669,-0.0026417,0.0802,0.12299,-0.029617,-0.13391,0.22302,-0.00021529,0.13464,-0.092285,-0.1897,-0.09906,0.040039,0.13379,-0.09021,-0.0096741,-0.067993,0.069702,-0.024078,-0.021744,-0.061493,-0.037354,-0.060455,-0.058105,0.13062,-0.0010834,0.067688,-0.10938,0.050659,0.022491,-0.032898,-0.11377,0.12054,0.093628,-0.01046,-0.19434,-0.041901,0.12408,-0.0013638,0.069214,0.070435,-0.039307,0.017273,0.065552,-0.08728,-0.11011,-0.15894,-0.1438,0.11908,0.11688,-0.053223,0.02092,0.062347,-0.031525,-0.05542,0.14075,0.12439,0.075439,-0.06781,-0.070923,-0.076843,0.036682,-0.17615,0.12708,-0.077454,0.05011,-0.020386,0.04892,0.20679,0.072449,0.016876,-0.0050125,-0.10577,-0.13403,0.051544],[-0.063049,0.059357,-0.055817,0.083679,0.076111,-0.0049057,-0.049774,0.055359,-0.094849,0.096619,-0.22705,0.198,-0.047363,0.015068,0.080627,-0.20801,0.064087,-0.031616,-0.097046,0.064514,-0.13635,0.034119,0.12549,0.082336,-0.036316,-0.00048137,-0.013275,-0.085022,-0.057983,-0.076233,0.039764,0.017151,-0.079468,-0.040955,0.020676,-0.016891,0.13391,0.11096,-0.11426,-0.09967,-0.14868,-0.085632,0.11609,-0.066528,0.027679,0.072327,-0.046936,0.11011,-0.10809,-0.16272,-0.050385,-0.077209,-0.00059271,0.081848,-0.027969,0.095581,-0.060699,-0.069946,-0.047791,-0.02713,-0.014008,-0.044312,0.044983,0.065979,0.010353,-0.06134,-0.012711,-0.17273,-0.091309,0.081848,0.063049,0.14551,0.031738,0.020187,-0.052368,-0.12683,-0.065552,0.0401,-0.085327,-0.091064],[0.0089722,-0.029114,-0.022369,-0.11914,-0.017059,0.039642,0.0094604,-0.058136,0.037018,-0.022369,-0.01564,0.10339,-0.015549,0.060303,0.066956,-0.11633,0.056885,0.018723,0.082703,0.095947,-0.017578,-0.015404,-0.0003891,0.079102,0.097168,0.040375,0.095398,0.0097198,0.054565,-0.091248,-0.056671,0.17651,0.010185,0.036499,0.035706,-0.054688,-0.093262,-0.18066,0.090698,-0.10522,0.035156,-0.098022,-0.09436,0.098022,0.067505,-0.0072441,0.036041,0.12634,0.10773,-0.12189,0.053986,-0.11304,-0.056976,0.11456,-0.11975,-0.010994,0.1087,0.12347,-0.10986,0.0022278,0.014709,0.093384,-0.0031433,0.036469,0.11578,0.021606,0.024521,0.054626,0.049438,-0.071106,0.060028,-0.0072441,-0.023224,0.1037,-0.074463,0.07074,0.13062,0.096069,-0.069519,-0.0078659],[-0.027084,0.019241,-0.01265,0.065247,0.080688,0.0056114,0.013802,0.1134,-0.034851,0.0013933,-0.10767,0.17651,0.06604,-0.020798,-0.11127,-0.027847,-0.0014296,-0.056641,-0.011322,0.19482,-0.055786,0.069763,-0.099304,-0.086853,-0.086365,0.097717,0.06958,-0.088196,0.13818,-0.057953,-0.13318,0.15894,0.074158,0.092346,0.10333,0.12866,-0.097412,0.011879,-0.0029888,-0.064819,0.15588,-0.095825,0.019897,-0.019958,0.10016,-0.033295,0.073608,0.12384,-0.01825,-0.18445,0.12299,-0.047241,0.10638,0.10748,0.054291,0.11511,0.10248,-0.012794,0.023972,0.049347,0.14722,0.14941,-0.11908,-0.016983,0.10522,0.08844,0.05365,0.10284,-0.005806,-0.021408,-0.05658,0.061676,0.065308,-0.083679,-0.10992,0.12842,-0.014534,0.14368,-0.12964,-0.037994],[-0.10333,0.1322,-0.10461,0.068665,0.072815,0.15845,0.1283,0.022614,0.073792,-0.006485,-0.029572,0.06488,0.1192,-0.019867,-0.09198,-0.14526,-0.050751,-0.035065,0.048279,0.021317,-0.092346,0.050415,-0.09375,0.12561,0.0067291,0.040039,0.025909,-0.0080414,0.12128,-0.012177,0.031342,-0.088501,-0.022949,0.067261,0.040283,0.018936,0.059448,0.027573,0.11255,-0.068115,0.046234,-0.066772,-0.12769,-0.011269,0.032166,-0.099426,-0.10785,0.072693,0.066223,-0.11603,0.10229,-0.11102,0.14099,0.0896,0.0066032,0.14038,-0.029984,-0.025726,0.10638,0.0069695,-0.0099106,0.044891,-0.076294,0.032471,0.12659,0.064331,0.0085297,0.0088272,0.0242,-0.031982,0.019836,0.03302,0.072937,-0.023438,-0.0036907,0.041901,0.089111,0.14404,-0.064148,0.04541],[-0.059753,-0.11908,-0.20581,-0.014603,0.10699,-0.036011,0.09436,-0.053345,-0.12048,0.037903,0.010384,-0.14929,0.026306,-0.11316,0.099365,-0.035858,0.13855,0.045624,0.071411,0.20691,0.086853,-0.062347,0.13123,0.031189,-0.021469,-0.02739,0.14905,0.077515,0.14026,-0.10107,0.13782,-0.031158,0.013672,0.030182,0.091248,0.099182,0.020508,-0.057983,-0.0019236,-0.052094,-0.014732,-0.086731,-0.094421,-0.059937,0.071411,0.042267,-0.10602,-0.056152,0.13354,-0.055695,0.12988,0.10034,0.051208,-0.082397,0.1109,0.058655,0.13464,0.0098267,0.074707,-0.052002,0.040253,0.066101,0.045441,-0.092102,-0.014969,-0.065063,-0.11328,0.1543,0.029861,0.027451,-0.037048,-0.029633,-8.136e-05,0.041473,-0.19031,0.013321,0.13037,0.1571,-0.078491,0.097961],[-0.13806,0.07666,-0.054352,0.017487,0.00062656,-0.13342,0.0039482,-0.14038,-0.1438,-0.091431,-0.015091,-0.11566,0.15881,-0.14734,0.10406,-0.048889,0.20898,-0.13269,-0.088074,-0.11896,0.056793,0.024323,0.14917,-0.10132,-0.028549,0.025986,-0.033112,-0.046173,0.17102,-0.091125,-0.030212,-0.051025,-0.093933,-0.011635,-0.011116,0.045685,0.051331,-0.006813,-0.1048,-0.10938,0.03299,-0.053802,-0.16125,-0.023193,-0.12134,-0.075317,0.083252,0.041656,0.062927,0.010605,0.1059,-0.065735,0.14368,0.075317,0.12805,0.094299,0.027496,0.033081,-0.02774,-0.043823,0.14038,-0.043793,-0.13452,-0.11829,-0.078247,0.011681,0.02504,-0.056946,0.0336,-0.12537,0.027893,0.051117,-0.042969,-0.028458,-0.038025,-0.077881,0.024139,-0.018265,0.084167,0.049744],[-0.095764,0.10583,0.0085831,0.029144,-0.04184,0.042084,0.16638,0.0037136,-0.024307,0.031677,-0.039795,-0.0060081,0.1355,-0.044952,-0.10077,0.073181,0.11084,0.0093155,0.0097961,-0.046356,-0.13794,0.015259,-0.043335,-0.039917,0.060699,0.095154,0.0016165,0.22327,0.060974,-0.014473,0.093445,-0.096863,-0.048615,0.019409,0.06897,-0.02124,-0.05835,-0.18555,-0.011932,-0.0088272,0.034546,-0.072327,-0.099976,0.066711,-0.073669,0.030731,-0.0079422,-0.093079,0.057037,-0.075378,0.078186,-0.15796,0.17456,-0.023239,0.14417,-0.016876,-0.032654,0.0849,0.11377,0.067444,-0.052734,0.0027828,-0.063232,0.025436,0.038757,0.1062,0.1261,-0.13831,0.10309,0.010078,-0.0032024,-0.15466,-0.027588,-0.0036392,0.012161,0.071533,0.088562,0.02832,-0.040924,-0.011459],[-0.042938,0.029678,0.076904,-0.055237,0.061493,0.10571,-0.021179,-0.10675,-0.048767,-0.041962,0.1167,-0.064148,0.11554,0.046234,0.13147,-0.11609,-0.01358,-0.049927,-0.01828,-0.0096588,0.078003,0.1167,0.046692,-0.058411,0.032501,0.037537,0.072021,0.11823,0.10413,-0.078674,0.13782,0.008522,0.070312,-0.05661,0.10699,0.011429,-0.058197,-0.042084,0.019531,-0.088196,-0.081848,0.054138,-0.010963,-0.0082321,-0.099121,-0.047638,-0.064636,0.020004,-0.04184,0.09198,0.060883,-0.10278,0.14355,0.029755,0.18945,0.026611,0.034119,-0.084351,-0.081177,0.040253,0.11493,-0.0070915,0.042053,-0.081665,-0.09906,-0.038177,-0.10321,-0.05777,-0.022507,-0.03598,0.0062141,0.066162,0.023331,-0.040039,-0.11951,-0.1311,0.16711,0.20422,-0.11725,-0.079163],[-0.16138,0.0059509,-0.072327,-0.10291,0.092346,0.053528,0.027649,-0.1604,0.056183,0.072571,0.024429,-0.11267,0.10187,0.032898,-0.040863,0.087158,-0.026794,-0.070984,0.13452,-0.0041313,-0.070923,-0.026031,-0.084412,0.10486,0.086853,-0.080017,-0.056824,0.05722,0.01252,-0.13989,-0.062225,0.10236,0.020721,0.055084,0.0079651,-0.081238,-0.031464,-0.030197,-0.039001,0.043884,0.01622,0.014275,-0.054199,0.070862,-0.072327,-0.040497,-0.12048,-0.013794,-0.0080109,0.079773,-0.074707,0.015404,-0.020584,0.074707,0.11127,-0.0095978,0.06897,0.1333,0.082886,-0.058777,-0.0026665,0.15149,-0.013283,-0.019653,0.026886,-0.02449,-0.063843,0.027267,0.097351,-0.079712,-0.035034,-0.023575,-0.016922,0.035858,0.0038338,0.018158,0.016129,0.12549,0.090454,0.068604],[0.0012007,-0.030884,-0.1615,-0.060669,0.048279,0.16187,0.099121,-0.06543,-0.019897,0.03241,-0.097351,0.034485,0.028061,0.1225,0.050842,-0.10406,-0.15601,0.072693,0.19238,0.076538,-0.016464,0.11438,-0.13806,0.071045,0.032715,0.064819,0.050781,0.1217,0.11365,-0.048065,0.056732,0.072937,-0.1026,0.04715,0.049438,-0.046112,-0.11517,-0.11151,0.075623,0.0063629,0.12006,0.019623,0.10297,-0.085938,-0.038605,-0.053131,-0.095581,0.12195,0.030396,-0.13525,0.11414,0.02272,0.15027,0.10724,0.068604,0.13208,0.037048,0.03038,0.041046,-0.061829,-0.035553,0.1416,-0.10175,0.023514,0.11542,-0.08667,0.0023842,0.0049706,0.096741,-0.055939,0.12854,-0.1261,0.034058,0.038849,-0.080627,0.01387,0.0082321,0.092346,0.04837,-0.019424],[0.1037,-0.01947,-0.021805,0.13037,-0.0095749,0.016525,-0.025482,-0.13721,0.014694,0.17163,-0.22974,0.08905,0.040192,0.080505,-0.035156,-0.16479,-0.18567,0.14807,0.055115,0.013618,-0.030991,-0.070007,-0.021362,-0.025131,0.018097,-0.14404,0.03244,-0.0030098,-0.050446,0.041138,-0.020645,0.15845,-0.035461,-0.039185,-0.14136,0.064331,-0.030716,0.077087,-0.041107,0.045837,-0.25757,-0.062042,0.042114,-0.11719,0.014137,0.096619,0.10449,0.095337,-0.072937,-0.10535,-0.14636,-0.04071,-0.069763,0.065979,-0.086365,0.080688,-0.00054216,0.075012,-0.03653,-0.17175,-0.09906,-0.23608,0.047119,-0.05542,-0.061829,-0.0058441,0.04837,-0.10657,0.079712,0.053802,0.0099945,0.043823,-0.067932,0.045441,-0.0077972,-0.040833,-0.018295,-0.12354,-0.11835,-0.018814],[-0.028656,-0.032898,-0.13049,-0.053497,-0.037445,0.13281,0.072754,-0.004467,0.082886,0.058136,-0.015015,0.039764,0.046417,-0.048218,-0.11523,-0.0084991,-0.070496,0.055511,0.14355,0.099365,-0.082153,0.12878,-0.055603,0.13574,-0.076782,0.043945,-0.086609,0.031143,-0.062805,-0.09729,0.053741,0.18701,-0.021698,0.010483,0.146,0.040253,-0.081848,0.021835,0.13171,0.042603,0.10699,0.12097,-0.054718,0.032715,-0.0046921,-0.097961,0.093018,-0.058533,0.091248,-0.12469,0.03653,-0.043762,0.028397,0.04303,0.049164,0.13721,0.00075293,0.093933,0.011345,-0.0401,0.13086,0.019669,-0.081543,-0.019165,0.030655,0.068848,-0.022919,-0.021606,0.088379,0.023514,0.11401,-0.024475,-0.015854,-0.0030975,-0.063782,0.0036297,0.057343,0.048553,0.034454,0.075012],[0.029251,-0.13281,-0.032074,0.012894,-0.09845,0.096497,-0.014359,-0.13062,0.028931,-0.023163,0.091553,-0.27563,0.093689,0.072632,0.14514,-0.079468,0.18579,-0.05835,0.033142,0.031311,0.035309,-0.065063,0.16333,-0.088806,0.017746,-0.030289,-0.070557,-0.025742,0.151,-0.36475,-0.073303,0.048889,-0.080444,0.038971,0.10699,-0.063171,0.10413,-0.16785,-0.16858,-0.088135,-0.0027618,0.10535,-0.093506,-0.10675,-0.1142,0.073425,0.019333,0.05838,0.082947,0.076355,0.14941,-0.10339,-0.0085602,-0.026154,0.11407,-0.083496,0.13403,0.0068169,0.069153,0.1864,0.13831,0.14307,-0.10687,-0.045898,0.023544,0.11157,-0.10486,0.18958,0.0038605,-0.052307,-0.015152,-0.14624,0.089417,0.02182,-0.23035,-0.097046,-0.01223,-0.021927,-0.04007,-0.010887],[0.020096,-0.039276,0.017883,0.082275,-0.14917,-0.048798,-0.056183,-0.067444,0.20374,-0.071533,0.065247,0.11121,-0.039734,0.08551,-0.11212,0.048004,-0.19495,-0.015762,0.002861,0.026077,-0.05957,-0.037018,-0.068665,-0.0064812,-0.11542,-0.12091,-0.024933,0.095764,-0.047485,0.0033798,0.055511,0.059265,0.081726,-0.05542,-0.074951,0.038086,0.068176,0.15076,0.11871,0.0076485,0.021469,0.033051,0.25293,0.12097,0.06958,0.14136,0.15576,-0.040619,-0.051788,-0.040009,-0.072876,0.073975,-0.062408,-0.016968,-0.11066,-0.13623,-0.015526,0.070007,0.13794,0.044952,0.069763,0.0070229,0.014313,-0.025589,0.020081,-0.037872,-0.0022717,-0.0062523,0.06076,-0.014648,0.061554,-0.070618,0.028915,0.20752,0.17334,-0.099304,-0.11249,0.059143,0.047913,-0.08551],[0.15271,9.8586e-05,-0.00010043,0.069153,0.13208,-0.035461,-0.07373,-0.12756,-0.079712,0.041809,0.035645,0.18335,-0.079346,0.098083,0.10657,0.019852,0.057495,0.036224,-0.11285,0.050751,0.0056,0.053589,0.063721,0.055084,-0.031799,-0.034576,-0.047668,-0.06488,-0.030365,-0.071838,-0.040558,-0.038177,0.065308,0.10742,0.054901,-0.029358,-0.0401,0.046936,-0.053986,0.10638,-0.13745,0.11523,-0.11804,-0.092834,0.012009,0.014977,-0.080811,0.07251,0.078857,0.089844,0.054199,-0.10303,-0.10864,0.10443,-0.15991,-0.048584,0.12793,0.014641,0.066895,-0.013428,0.11157,-0.16187,0.09668,0.13074,0.0083771,0.10315,-0.11243,-0.11469,0.064148,-0.061951,0.06073,-0.057343,-0.042114,-0.049713,-0.015656,-0.086121,-0.12988,-0.15503,-0.12659,-0.065247],[-0.19531,0.012344,-0.16101,-0.11523,-0.12378,-0.16943,0.10358,-0.16028,-0.022644,0.011421,-0.049011,-0.090271,0.15002,0.014229,-0.075195,0.035797,0.044464,0.030731,-0.042206,-0.089966,-0.15137,-0.11731,-0.06897,-0.10938,0.040131,-0.047394,0.056183,0.1142,-0.084412,-0.088379,0.07959,-0.24487,-0.1969,0.10815,-0.061157,-0.066833,-0.080383,-0.19263,0.057892,-0.072388,-0.32959,0.064392,0.074646,-0.037903,-0.047089,-0.036774,-0.1676,0.017746,0.044373,0.015991,0.09259,-0.13245,0.058624,-0.021027,-0.006794,0.14758,0.12598,0.12256,0.15112,0.030487,0.12805,0.065125,-0.063232,-0.19873,-0.09198,0.066895,0.099426,-0.2561,-0.056,-0.072937,0.023788,0.088989,0.11462,-0.099365,-0.00045514,0.053467,-0.023346,0.00039148,0.12054,-0.043854],[0.13416,0.00013697,0.030609,-0.019897,-0.1394,-0.051086,-0.1322,-0.079285,0.17212,0.10553,-0.098389,0.00088787,-0.087891,0.027115,0.047974,-0.33911,-0.076355,0.172,-0.0038872,-0.11542,0.0012617,-0.15527,-0.12421,0.011848,0.0014572,0.0087662,0.061554,-0.041046,-0.19482,0.098816,0.12189,0.13147,-0.058746,-0.049255,-0.047546,-0.1131,-0.033722,0.11725,0.069946,0.069641,-0.30127,-0.052002,0.040344,-0.060577,0.022095,-0.056396,0.047424,0.0028839,-0.15747,-0.13367,-0.12085,-0.13818,-0.00012898,-0.14319,-0.074219,-0.042786,-0.1709,-0.032166,-0.11292,-0.14026,-0.0013752,-0.20557,-0.035461,0.0080185,-0.12805,-0.068848,-0.081665,-0.053619,-0.13843,0.071411,0.11823,0.069092,0.0090332,0.10339,-0.14307,0.14087,-0.022476,-0.034943,0.029037,-0.08313],[0.023697,0.0077362,-0.1153,0.076599,0.09906,0.034882,-0.080872,-0.16528,0.024673,0.091797,-0.20923,0.17432,0.0026417,0.10156,0.12549,-0.19092,-0.16052,0.082275,0.066345,0.061707,-0.13892,-0.0057144,-0.13867,0.044861,-0.051208,0.070862,0.14819,-0.13184,-0.12115,-0.0080795,-0.054962,0.12109,-0.20117,-0.048859,-0.18945,0.030396,-0.088989,-0.066772,0.1272,0.06311,-0.18896,0.10333,0.085999,0.052094,-0.013657,0.061157,-0.093018,0.070679,-0.040741,-0.22473,-0.08606,-0.26978,-0.1214,-0.031403,-0.0013666,-0.067322,0.059814,0.05719,-0.078308,-0.19043,0.00037932,-0.035095,0.12482,-0.0065422,0.048553,-0.11334,-0.067627,-0.16833,-0.056458,0.044403,0.087341,0.12091,-0.046082,0.033447,0.014435,0.04541,-0.0083847,-0.1037,0.024658,-0.1181],[0.015839,0.041351,0.041809,-0.0055656,-0.14221,0.04303,-0.062256,0.11713,0.036011,-0.068787,-0.022156,0.076538,-0.085754,-0.049194,0.064636,0.055756,-0.003603,-0.00033069,-0.0061493,-0.040161,-0.06366,-0.10217,-0.01123,-0.045746,0.034882,-0.013756,-0.065369,-0.058746,-0.10425,0.087891,0.10101,0.0094681,-0.058105,0.068848,0.024872,0.057037,0.028351,0.079956,0.0024948,0.024902,-0.060669,-0.020905,0.098633,0.058044,0.028412,0.075195,0.13013,-0.039978,0.035461,0.027863,-0.075928,0.0030499,-0.12903,-0.10437,-0.034424,0.076538,-0.027222,0.0035858,-0.076782,-0.09259,-0.068665,-0.023788,0.064758,0.018326,0.020691,-0.017853,-0.024612,0.072937,-0.06897,0.16064,-0.048035,0.15894,0.029007,0.022324,0.038879,-0.033417,-0.16882,-0.18079,0.10736,0.086548],[0.10107,-0.049805,0.068359,0.045715,-0.12817,-0.12524,-0.024094,-0.012131,-0.071899,-0.048767,0.044739,0.021088,-0.042633,0.093567,0.16565,0.11749,0.076233,0.042908,0.052826,0.050659,0.090942,0.042419,0.10474,0.012962,0.084961,0.020996,-0.045166,-0.081543,-0.11969,0.007618,-0.0015059,-0.071472,-0.052094,-0.075378,-0.0021381,-0.021591,0.030563,0.066528,-0.076233,-0.048126,-0.16394,-0.047119,-0.067383,-0.088867,-0.028564,0.13123,0.1062,0.0085144,0.063171,0.038666,-0.093262,-0.080322,-0.089417,-0.077393,-0.062347,0.011795,-0.098633,-0.042725,-0.094421,0.089844,0.066895,-0.10358,0.12457,-0.019882,0.055939,-0.031189,-0.0023537,0.054565,0.059601,0.068237,0.030838,0.056305,0.090454,0.036438,0.043976,-0.003212,-0.11621,-0.094055,-0.067688,0.064148],[-0.052185,-0.075317,0.093506,-0.0070114,-0.1059,-0.095215,0.044495,0.041656,-0.033691,-0.10022,-0.12744,-0.32812,0.12183,-0.057007,0.098572,-0.03894,0.08905,0.016571,-0.1095,-0.030533,-0.018814,-0.0088272,-0.019943,-0.07843,0.11035,-0.060364,-0.18359,-0.12927,0.068787,-0.01387,-0.055206,0.036621,-0.042206,0.068054,-0.038086,0.068787,0.11371,-0.05658,0.051117,-0.089111,0.19055,0.090881,0.099792,-0.0011148,-0.061554,-0.012894,0.11084,-0.087891,0.0012074,0.03186,-0.11694,-0.038818,0.040192,-0.084412,0.012199,-0.04892,0.08374,-0.075439,0.11725,-0.081543,0.076355,-0.029068,-0.019379,0.036407,0.088379,0.038208,0.071228,-0.006958,-0.076355,0.061707,0.12524,0.14746,-0.10834,0.21057,0.014839,-0.050903,-0.033051,-0.089844,0.20068,-0.10492],[-0.038574,0.13989,0.062683,-0.10522,0.03949,0.14441,0.064209,-0.04425,0.079956,0.14514,0.086731,0.045074,-0.088135,0.12903,-0.069824,-0.011955,0.015053,-0.093567,0.13196,0.20886,-0.046906,0.13208,-0.021973,-0.017258,-0.082947,0.098083,-0.12378,0.1261,0.0078506,0.0085526,0.03952,0.23511,-0.074707,-0.059082,0.13892,-0.025085,-0.050354,0.020477,0.019958,-0.0048103,-0.037384,0.092163,0.099304,0.030243,-0.0088654,0.0027256,0.05011,0.024429,0.13208,-0.085632,0.071838,-0.066528,0.06897,0.036743,0.12427,0.085876,0.12427,0.089478,-0.017166,0.14404,0.11871,0.11493,-0.036194,-0.078674,-0.035797,0.02774,-0.06427,0.041229,-0.080994,-0.12988,-0.031952,0.024918,0.08728,-0.071594,-0.088196,0.066162,0.094177,0.010323,0.034851,-0.066589],[0.026947,0.08667,0.050201,-0.12329,0.1499,0.10284,0.18457,0.12231,-0.056213,0.053619,-0.073059,0.29297,-0.040894,0.12012,0.039337,-0.043579,-0.040894,0.010139,0.040833,0.049194,-0.17285,0.078003,0.069153,0.062469,0.072571,0.0079651,0.081604,-0.058716,0.12085,-0.0071449,-0.16284,0.11603,0.11481,-0.0074883,0.1261,-0.0031261,-0.095886,-0.028564,0.12219,-0.15588,0.087708,-0.069702,0.01461,-0.010521,-0.056122,0.13843,-0.043365,-0.011238,0.0014267,-0.016052,0.078308,-0.0043907,0.013519,0.13049,0.0131,0.13403,0.067688,0.09082,0.090942,0.056427,-0.044159,0.089905,-0.146,-0.017715,0.030457,0.091675,-0.065552,-0.17664,0.079163,0.002903,0.036591,-0.016174,0.062622,0.042511,0.11444,0.12817,0.15686,0.038635,0.01403,0.030823],[0.037109,-0.0059814,-0.098511,0.043823,-0.16272,-0.16968,-0.068054,-0.19507,0.091736,0.014557,0.064392,-0.05719,0.049103,0.0089722,-0.060028,0.077454,0.082031,0.096008,0.0040779,-0.13635,0.10767,0.112,-0.19507,0.16479,0.023514,0.039551,-0.013382,0.092102,0.0096359,0.024948,0.14502,0.07605,-0.093445,-0.11792,-0.11731,0.10712,-0.014198,0.095581,0.16931,0.023712,0.16235,0.037628,0.041321,0.051514,0.12408,-0.15381,0.10205,0.072083,0.022751,-0.017227,0.033173,-0.046112,-0.072754,0.036133,0.16626,-0.0017433,-0.029236,0.056732,0.21716,-0.0071564,-0.11768,0.024567,0.039886,-0.065002,0.014015,0.12079,0.077209,0.065186,-0.025696,0.11469,0.062866,0.022186,0.022812,0.099915,0.044464,0.059479,0.034515,0.016968,0.24634,0.011475],[0.019928,-0.020111,-0.018967,0.025406,0.0094147,0.084167,0.086731,-0.18311,-0.03241,0.047577,0.1322,0.0065575,-0.067078,0.0038605,0.11517,-0.054962,0.17407,-0.049866,0.088989,0.072937,0.14258,0.061951,0.027664,0.10907,0.083252,-0.034119,-0.020584,0.14111,0.088867,-0.16162,-0.052765,0.035187,0.086121,0.07196,-0.021652,0.0013361,0.031281,-0.17822,0.072815,-0.045807,0.027298,0.026077,-0.077515,0.018951,0.14062,0.025284,-0.0061417,0.04126,0.05304,-0.067749,-0.058807,-0.00075674,0.052338,-0.084961,0.11462,-0.016541,0.15039,0.052765,0.060242,0.089172,0.081421,0.12347,0.02681,-0.016129,0.0019646,0.060883,-0.09491,0.092041,0.056519,0.014359,-0.11755,0.0072441,-0.033203,-0.088928,-0.15234,0.029282,0.11914,-0.021622,0.017548,0.13281],[-0.1405,0.036774,-0.16528,0.043976,-0.0061111,-0.14612,0.078247,0.0094299,0.047058,-0.13013,-0.020996,-0.036072,0.089722,-0.1037,-0.02121,0.0097504,0.16638,-0.083923,-0.039581,-0.045868,-0.16772,-0.050507,-0.075256,-0.15173,0.059479,-0.050629,-0.014511,0.037048,0.088318,0.035431,0.19983,-0.092834,-0.15051,0.032074,-0.04776,0.10175,-0.011513,-0.18665,0.039886,0.0017042,-0.085571,0.060059,-0.034698,0.055023,-0.14185,-0.15283,0.10596,0.082703,-0.011131,0.13696,0.03891,-0.11591,0.011482,-0.059113,0.17188,-0.054169,-0.034088,0.14758,-0.014175,0.086609,0.039337,0.084106,0.11316,-0.047974,0.025436,-0.016464,-0.053833,-0.2262,-0.10431,-0.034851,-0.010368,0.014397,0.069092,0.01474,-0.035614,-0.082397,0.076416,-0.030945,0.18298,-0.079773]],"b":[0.038452,-0.02829,-0.11786,-0.07666,-0.061249,-0.082581,0.096924,-0.011047,-0.043091,0.00099087,-0.030441,0.0074883,0.10419,-0.10852,-0.053864,0.043732,0.096436,-0.10284,0.040466,0.11646,-0.026749,-0.056152,0.091675,0.024994,-0.0029564,-0.056641,0.0084991,-0.02507,-0.099121,0.0802,0.083923,0.032104,-0.16406,0.10706,0.092957,0.13147,0.025177,-0.017563,-0.066406,0.066528,0.004425,-0.11688,0.11676,-0.008728,0.11621,-0.14722,-0.024567,0.10962,0.16211,-0.035675,0.029556,0.1427,-0.022385,0.00050116,0.10944,0.10004,-0.037445,0.092712,-0.01564,0.01947,0.086365,0.0035725,-0.0043716,-0.026825,-0.076111,0.091675,-0.093689,-0.09613,0.015251,0.023895,0.047546,0.056,0.11462,-0.096313,-0.034363,0.01619,-0.1026,-0.049011,0.089783,0.060608]},{"W":[[-0.12561,-0.020142,-0.0070572,-0.035431,-0.050873,0.073364,0.17981,-0.032745,0.0095596,0.044281,-0.104,0.017456,0.11621,-0.093323,0.018097,0.21716,-0.071899,-0.095459,-0.004158,-0.05838,0.04425,-0.042267,0.039429,0.18579,0.014748,0.032806,-0.022919,-0.033447,0.080566,0.05365,-0.05899,-0.043884,-0.079285,0.12402,0.19385,0.13721,-0.039093,-0.10461,0.12207,-0.029465,0.10199,-0.13452,0.043884,-0.084656,0.046387,-0.056091,-0.0008955,-0.05603,0.09552,0.02861,0.050262,-0.10187,0.0091934,-0.031464,-0.057281,0.16577,0.13477,0.049713,0.14404,0.12115,0.087341,0.058258,-0.064209,0.036255,-0.003624,-0.01825,-0.098022,-0.089478,-0.017914,-0.065552,-0.14209,-0.077393,0.13025,-0.0039711,0.13074,-0.08136,-0.020126,-0.063843,0.14331,-0.10883],[0.097229,0.11664,0.046143,0.0024223,0.13916,-0.062134,0.019562,-0.074524,0.13306,-0.057831,0.10559,0.13904,-0.14868,-0.037354,0.074524,-0.038788,0.094543,-0.036865,0.016907,-0.14258,0.0057983,0.082825,0.0061684,-0.15186,-0.029343,0.07428,0.039093,-0.011597,0.028305,0.011742,-0.076172,0.095093,0.073975,-0.0018311,0.088623,0.044647,0.075195,0.026596,-0.24084,0.092529,0.095886,0.15063,-0.063171,-0.007206,0.071411,0.13672,0.054657,0.0672,0.051727,0.041656,0.054779,-0.10443,-0.12213,0.033691,-0.06076,-0.034546,-0.012367,0.10504,-0.10248,-0.21289,0.044098,0.062561,-0.084229,0.00046062,0.10474,0.1095,-0.029816,0.14294,0.11035,-0.094238,0.17029,0.15918,-0.071045,0.072144,0.067871,-0.043976,-0.073486,-0.010887,0.075195,0.013611],[0.0298,-0.0040054,0.0034389,-0.037476,-0.024536,-0.067566,-0.078796,-0.094482,0.062744,0.04837,0.032166,0.11731,-0.079468,-0.12158,0.13953,0.10602,0.16931,-0.11267,0.062134,-0.017883,-0.040466,0.0013924,0.14404,-0.065491,-0.11395,-0.09021,-0.05069,0.053741,0.0070229,0.12219,-0.080261,-0.054749,-0.11926,0.085632,-0.047821,0.089966,0.13782,0.11865,-0.16968,0.024918,0.019958,0.019196,0.064575,-0.19946,0.050751,0.25,-0.14124,0.13269,-0.0039406,0.11493,-0.082275,0.20142,-0.067139,0.0068398,-0.031555,0.061005,-0.058929,-0.05188,-0.074036,0.070251,0.056763,-0.024734,0.104,0.013748,-0.017929,0.013046,-0.035583,-0.028305,0.03894,0.0071983,-0.033722,-0.012581,0.12207,0.036469,0.01165,0.036377,-0.091187,0.14954,0.019775,0.12561],[-0.15051,-0.0092773,-0.112,0.029114,-0.076294,0.032288,0.027283,0.093323,0.072998,0.070801,-0.0046692,-0.12311,0.0015421,-0.025375,-0.12201,0.098206,-0.042816,0.06842,-0.0019264,-0.10004,0.0013704,-0.15417,0.007103,-0.010849,0.12469,0.021835,0.021347,-0.049286,-0.075989,0.12445,-0.013718,-0.070801,0.035492,0.080627,0.03241,-0.0085068,0.0074654,-0.066956,0.1225,-0.035675,0.0048637,0.013008,0.048096,0.14001,0.24451,-0.14661,0.10284,-0.030792,0.19104,-0.0015926,0.015526,-0.16992,-0.01458,0.048431,0.11194,0.094543,0.14648,0.0896,0.059082,0.005394,-0.077515,0.016968,0.12659,0.14709,-0.039001,0.1322,0.13184,-0.15088,-0.090271,-0.070923,-0.049438,0.041412,0.027161,0.061615,-0.095642,0.13025,0.093323,-0.17126,-0.043762,0.017838],[0.090149,-0.10278,-0.020523,-0.13159,0.060516,0.084045,0.023773,0.095825,0.010277,0.10669,0.0087433,-0.037109,0.079834,0.063599,-0.13123,0.016342,0.02742,-0.02272,0.12469,-0.012917,0.16089,-0.087769,0.024979,0.024216,0.11017,0.057037,0.090576,0.03653,0.093079,-0.0024357,0.0046043,0.011902,-0.020874,0.032166,0.072388,-0.13257,-0.040527,-0.011497,-0.047943,0.055878,0.059235,-0.13025,-0.0040321,0.064087,0.12708,0.12152,0.14062,-0.075073,-0.061829,-0.062744,-0.13123,0.084778,0.16492,-0.10028,-0.12427,0.099976,0.03035,0.13525,0.12537,-0.073181,0.075134,-0.075195,0.062744,-0.020126,-0.024918,0.15161,0.035614,-0.061554,0.020477,0.033691,0.06131,-0.10449,-0.0168,-0.11444,-0.094543,0.015358,-0.031494,-0.041962,0.0017853,-0.049255],[-0.021606,0.032623,-0.061096,0.055267,0.16797,0.15417,0.065186,0.037231,0.054901,-0.0083237,0.1225,0.032288,0.11151,0.0073967,-0.099976,0.1015,0.033081,0.022339,0.13696,0.13013,0.077393,-0.030106,-0.024994,0.082886,0.022995,-0.061554,-0.07074,-0.065613,0.02562,0.12512,0.063354,-0.14429,0.081482,-0.022964,0.14929,0.10632,0.064148,-0.14221,0.13135,0.12939,0.0097504,-0.018829,0.042236,0.035004,-0.12891,0.16223,-0.034912,0.017899,-0.11078,-0.014511,-0.026962,0.15247,0.049438,-0.041077,-0.15564,0.040741,-0.0401,0.13745,0.097046,0.08905,0.07196,0.091675,-0.013809,-0.076721,0.007988,0.097229,0.023636,-0.021912,-0.052734,0.044708,0.023773,-0.1427,-0.071411,-0.015076,0.040863,-0.014,0.012947,0.00027299,0.11694,0.15076],[0.13342,0.071167,0.16284,0.064575,-0.021378,-0.097595,-0.029999,-0.04306,0.068848,0.07135,0.071533,0.15869,0.027283,-0.078735,0.13135,-0.024094,0.11139,0.033203,-0.043243,0.045685,-0.01165,0.040192,0.15515,0.08551,-0.072388,0.068909,-0.035828,0.029785,-0.11627,-0.045227,-0.015327,0.016754,-0.0159,0.00089502,-0.054993,0.14221,0.1908,0.066956,-0.016327,0.06189,-0.030563,0.0025387,-0.060822,-0.078735,0.10419,0.088989,-0.10931,0.12793,0.11975,0.033234,0.053558,0.084595,0.05777,0.065186,0.016602,0.0058632,-0.12146,-0.097595,-0.076355,-0.091309,-0.066162,0.07959,0.035217,-0.031677,-0.030396,0.011856,0.019394,-0.011261,0.032623,-0.053192,0.1214,0.1145,0.019958,0.10382,0.073364,0.019226,-0.11627,0.13232,0.048309,0.063049],[0.082214,-0.03595,-0.10327,-0.04425,-0.080444,0.1156,0.075806,0.071716,-0.087952,-0.022079,0.078674,-0.12097,0.058655,0.12512,-0.13928,0.080078,-0.10736,0.026169,0.12695,0.1026,0.1604,0.072754,-0.11603,0.026749,-0.053253,0.056,0.060974,0.080566,0.089661,0.12805,0.032227,-0.06427,-0.02066,0.042084,-0.066589,0.10156,-0.084961,-0.057648,0.15356,-0.069763,-0.061981,0.021317,0.070068,-0.0099564,0.013664,-0.035278,0.071716,-0.11981,-0.13159,0.023483,0.02298,-0.0079269,0.087646,-0.058075,0.035706,0.026489,0.027084,0.071167,-0.05249,0.09436,0.14453,0.14136,-0.036194,0.0011063,-0.057861,0.061035,-0.054047,-0.097168,-0.054291,0.13208,0.0077362,-0.12433,-0.040283,-0.097595,-0.027588,0.048981,-0.031677,0.02475,0.017166,0.034302],[0.13354,0.15015,0.023224,-0.061829,0.17676,0.031769,0.11829,-0.014526,0.1615,-0.01741,-0.10413,-0.048096,0.04184,0.032043,0.15723,0.19592,-0.032532,0.035187,0.073486,0.22229,-0.087463,-0.022064,-0.0013323,0.26855,0.14478,0.11682,-0.08606,-0.060547,0.17053,-0.062134,0.10992,-0.16809,0.4126,0.15784,0.17078,0.20862,-0.046509,-0.104,-0.010239,-0.15552,0.095459,-0.087402,0.012085,0.12756,-0.20679,0.086914,-0.10376,0.069824,-0.14844,0.03894,-0.048645,0.13464,0.21008,-0.1416,-0.16357,0.024582,0.015762,0.092163,0.14709,0.18433,0.084412,0.12488,0.13416,0.028168,-0.031555,-0.093872,0.031555,-0.1427,-0.15173,0.091003,-0.0051842,-0.16711,0.19824,-0.022888,0.17432,0.12421,-0.052094,-0.050323,-0.041443,0.15125],[-0.19189,-0.14209,-0.083557,0.054291,-0.025009,0.12952,0.01403,0.13245,-0.078125,0.025528,-0.15369,-0.013954,0.060974,-0.071045,0.056366,0.085632,0.094177,-0.011459,0.052032,0.0067558,0.15784,-0.092957,0.04715,-0.016922,0.12152,-0.17664,-0.013832,-0.047913,0.013618,0.050385,0.068359,0.039032,0.018341,-0.024811,0.14172,-0.066711,-0.09906,-0.049011,0.03067,0.14124,0.029556,-0.016617,0.084229,-0.060516,0.033936,-0.013641,0.018173,-0.078674,-0.033661,0.032196,0.053894,-0.10065,0.1394,-0.14246,-0.13098,0.078247,0.053253,-0.01886,0.15149,0.041046,-0.028351,0.11755,0.026062,0.01947,-0.096619,0.025452,0.093445,-0.10168,0.037689,-0.068054,-0.027069,-0.0031948,-0.12573,0.020172,-0.085022,0.10583,0.051147,-0.04126,-0.012741,-0.037872],[0.035034,0.16394,-0.094116,-0.019363,-0.14661,-0.021011,0.025177,-0.10681,0.12732,-0.019653,0.00025535,0.083557,-0.075684,-0.13574,0.06781,-0.0090866,0.0030842,-0.1637,-0.13831,-0.090149,-0.04071,0.071411,-0.060974,-0.073303,-0.12415,0.11157,0.079651,-0.010315,-0.17114,-0.019989,-0.14783,0.13477,-0.10034,-0.097534,-0.034363,-0.0849,-0.023788,0.050446,-0.25757,0.14404,0.06958,-0.0091171,-0.09082,-0.069214,0.048248,0.1593,-0.19641,-0.051605,-0.0069275,0.17139,0.18066,-0.1897,0.029495,-0.035889,0.17517,0.087097,0.023834,-0.16992,-0.13086,-0.051483,-0.28418,-0.17493,-0.10437,-0.13147,0.085693,-0.064026,-0.031769,-0.073792,0.088318,-0.2561,-0.036713,0.1842,0.028229,0.19141,0.12915,-0.04245,0.042297,-0.13379,-0.098999,-0.13989],[-0.042145,0.061096,-0.087952,0.057922,0.10052,0.023743,-0.080139,-0.019135,0.038635,0.08783,0.021561,-0.031464,0.022736,0.11969,0.057068,0.07074,-0.15833,0.0073128,0.11011,0.12091,-0.014,0.068604,-0.05719,0.17944,0.031616,-0.058411,-0.11041,0.077087,0.10498,-0.021423,0.097351,0.024673,0.19507,0.093201,-0.10651,-0.013451,0.0896,0.060852,-0.047791,-0.061157,0.059113,-0.095215,0.077148,0.056183,-0.095398,0.24902,0.10419,-0.058044,-0.057312,-0.1283,-0.12097,0.086182,0.099243,0.039215,-0.13647,0.092285,0.096436,0.067688,0.11426,-0.026581,-0.055603,0.064087,0.066528,0.07605,-0.037476,0.12683,0.076721,0.074097,-0.10944,0.14722,-0.054413,-0.13831,-0.078918,-0.065857,0.0077057,-0.011215,0.13245,0.11414,-0.087341,0.12494],[0.1416,-0.022873,-0.060577,0.034485,-0.0063057,-0.12549,-0.096558,-0.0466,0.15649,-0.10181,0.062134,0.024261,-0.020081,-0.023682,0.069214,-0.012856,0.0057831,-0.076721,0.073181,0.13025,-0.040894,-0.00029922,-0.022415,0.062805,-0.027069,0.012512,-0.012672,0.19714,0.00019097,0.0048141,-0.0056648,0.080261,0.049438,-0.02124,-0.0060577,0.14197,0.1698,0.10986,-0.14648,-0.051605,-0.11536,0.094299,-0.087219,0.0015659,-0.033325,0.032806,0.10321,0.025101,-0.06427,0.024612,-0.12842,0.043762,-0.034149,0.089111,-0.11176,0.097351,-0.011002,-0.037018,0.015503,-0.011574,-0.0074348,-0.042908,-0.10419,0.090576,0.011589,0.086426,-0.042816,0.14966,-0.112,0.027618,0.03717,0.0224,0.066833,-0.15222,-0.17126,0.039795,0.033173,0.093872,-0.059753,0.15417],[0.010971,-0.040588,-0.13464,0.058807,0.13306,-0.045502,0.029266,-0.045685,-0.058319,0.12524,0.046143,0.026978,0.013451,-0.00050688,-0.029556,0.00091219,-0.1311,0.10223,0.045624,0.09436,0.12128,0.048737,-0.053436,0.12585,0.027298,-0.016632,0.025696,-0.1123,-0.015182,0.11078,0.038177,-0.090698,0.18091,0.0044365,-0.015221,0.11432,-0.088806,-0.047668,0.11096,-0.04184,-0.025955,0.10095,0.029373,-0.035583,-0.15833,0.14795,0.048035,-0.097778,-0.16064,0.052216,-0.15564,-0.013519,0.15637,-0.059143,-0.15601,-0.087708,0.14307,0.13477,0.00051594,0.14185,0.10187,0.13245,-0.024872,0.0044632,0.059967,0.07959,-0.046936,0.068054,0.085083,0.011208,-0.12842,-0.15356,-0.019363,-0.029236,-0.06665,-0.057251,0.096497,0.15161,0.12476,0.13257],[0.00064373,-0.11346,-0.13733,-0.09491,-0.029221,0.10468,0.058472,-0.018784,-0.07019,-0.010002,-0.077148,-0.035736,0.030685,-0.0041847,-0.048065,-0.027527,-0.030228,-0.049286,0.078064,-0.047455,-0.012169,0.046265,-0.0058975,0.022278,0.089661,-0.20203,0.026886,0.038696,0.032593,0.019012,-0.034058,-0.13293,0.01889,0.1189,-0.022583,0.0030403,0.045929,-0.15149,0.13245,0.12244,-0.0062675,0.066956,0.12634,0.13977,0.098083,0.15674,0.083496,-0.083984,0.025162,0.14624,-0.022141,-0.037323,0.038605,0.0168,0.0036964,0.1181,0.070618,0.088684,0.096924,0.042725,-0.075195,0.10327,-0.038696,0.093567,-0.11884,0.098206,0.029968,-0.1167,0.081299,0.0047569,-0.064758,-0.040924,0.069885,0.068481,0.028046,0.10651,0.10114,0.04248,0.14636,0.053619],[-0.13135,-0.091309,-0.029373,-0.029282,-0.2489,-0.027802,0.034393,0.14709,0.070862,-0.027191,-0.09613,0.056702,0.028595,-0.033234,-0.043152,0.036407,-0.077087,0.026718,0.033081,-0.078247,0.12939,-0.089722,-0.060974,0.18054,0.016785,0.08374,0.10339,-0.029297,0.14319,-0.021667,-0.040039,-0.13708,-0.12463,0.026245,0.14868,-0.016266,-0.082458,0.037598,-0.059906,-0.095825,0.15515,-0.17908,-0.049011,-0.1098,-0.0024242,-0.029922,0.042145,-0.1543,0.088196,-0.13013,0.076233,-0.15039,-0.019608,0.084534,0.011284,0.016571,0.15625,0.040436,0.062195,0.025085,-0.029495,-0.082031,-0.095093,0.12805,0.047272,0.14722,-0.061829,0.084656,0.050323,0.007473,-0.010307,0.1217,0.054535,0.025146,-0.12927,0.042206,0.088196,-0.11237,0.12268,0.012398],[-0.03302,-0.10767,-0.024307,0.054535,0.17322,0.046661,0.0233,-0.066895,0.10687,0.13623,-0.03952,-0.082397,0.1272,0.0081177,-0.15808,0.079468,-0.12366,0.146,0.01535,0.03714,0.089966,0.08783,-0.05072,0.1864,0.022812,-0.00039625,-0.059326,0.12457,0.20654,-0.019562,-0.046997,0.06311,0.19861,-0.0186,0.068298,-0.040985,-0.040039,0.057068,0.034912,-0.027222,0.046997,0.089966,-0.008934,0.034943,-0.21619,0.24646,0.172,0.098083,-0.32886,0.098633,-0.16492,0.067932,0.18201,-0.060699,-0.075928,-0.095215,0.10974,0.08429,0.065918,0.029663,-0.0035191,-0.055359,-0.07666,0.039551,-0.088623,0.08844,-0.046875,0.12634,-0.15161,0.20044,-0.13025,-0.16101,0.014214,0.055847,0.096741,0.17871,-0.018585,0.18005,0.082703,0.022125],[-0.17615,0.082275,0.036072,0.032532,-0.066101,0.065979,0.019501,0.031342,0.078003,-0.11481,-0.12286,0.046478,0.036285,0.022476,-0.062256,0.22351,0.14783,-0.051575,0.023773,0.11884,-0.11725,-0.085876,0.28271,0.014946,0.037933,-0.16089,-0.0079803,0.040161,-0.10858,0.026993,0.071289,-0.27539,-0.056091,0.023193,0.18127,0.13977,-0.047821,-0.14612,-0.012077,0.29346,-0.092285,-0.46851,-0.066406,-0.027435,0.0042305,-0.032318,-0.062744,0.008934,-0.10913,-0.00811,0.27222,0.055817,0.13062,0.020142,0.025589,0.070557,-0.045776,0.0041618,0.043182,0.14856,0.093567,0.18005,-0.0047188,-0.1344,0.030426,-0.037781,0.21155,-0.08197,0.14502,0.063293,0.020721,-0.05484,0.11346,0.11987,0.22754,0.0077782,-0.075134,-0.15662,0.15308,0.12585],[0.052002,0.14539,0.055206,0.18359,-0.0057182,-0.11957,-0.027313,-0.12292,0.112,-0.084229,0.0068321,0.091614,0.038361,-0.11127,0.089478,0.037262,-0.0224,0.023468,-0.017044,-0.15662,-0.10724,0.10455,0.20032,0.022354,-0.11523,0.029922,0.072021,-0.09021,-0.058472,0.041565,0.060028,0.13879,0.13635,0.047577,0.021576,0.056396,0.027206,-0.021332,-0.14136,0.080505,0.085022,-0.0077438,-0.10699,-0.076721,0.20007,0.044464,-0.11218,0.049988,0.042145,0.07782,0.21313,-0.055756,-0.029495,0.025909,0.039978,0.0031204,-0.029953,-0.11908,-0.035339,-0.092834,-0.025131,-0.11871,-0.06073,-0.071533,0.16943,-0.11469,-0.052429,0.14819,0.02626,-0.13989,0.17615,0.12891,0.092285,0.14441,0.090027,-0.034882,0.072388,0.026291,0.076599,-0.17542],[0.15784,0.1217,0.052795,0.009613,0.054749,-0.10919,-0.08313,-0.0040817,0.11627,-0.011871,0.019714,0.15942,-0.10504,-0.099487,0.14758,0.018021,0.067078,-0.085754,-0.12598,-0.0072823,0.00069952,0.14954,0.17615,0.03775,0.0032825,0.013405,-0.038666,-0.030945,-0.047974,0.011284,-0.051178,0.12427,0.0015774,-0.10547,0.0044975,0.016266,0.11725,0.13196,-0.10925,0.083618,-0.062195,0.064636,-0.12317,-0.066895,-0.093689,0.0121,-0.15222,-0.00015688,0.058502,0.077698,-0.010742,0.10034,0.15967,0.012527,0.10144,-0.015343,-0.064758,-0.1181,0.0030098,-0.11139,-0.15247,0.016434,-0.079895,-0.031799,0.031708,-0.09668,-0.096741,-0.041016,-0.06488,0.022827,0.11011,0.037903,0.10681,0.021118,0.15686,-0.092346,-0.049774,0.037384,-0.059937,0.2196],[0.083496,0.20374,0.24231,0.11652,0.019089,0.057953,0.051086,-0.11011,0.034973,0.041992,-0.062286,-0.0013847,-0.071289,-0.067932,0.11359,0.033539,0.047729,-0.10181,0.0029907,0.047577,-0.052246,0.042694,0.056091,-0.0080185,0.049133,0.081543,-0.032806,0.00079203,-0.0059509,-0.093994,0.067139,0.21289,0.080383,0.092224,0.07843,0.06015,0.085266,-0.015182,-0.060608,0.01799,0.014374,0.016235,0.0075035,0.0092773,0.038422,0.085632,-0.12469,0.084656,-0.041504,-0.018356,0.10046,-0.049377,-0.14978,0.079895,0.054688,-0.0050583,-0.10492,-0.090942,0.016068,0.013931,0.12512,0.084961,0.0672,0.029755,0.15332,0.036713,-0.09845,0.083923,0.092834,-0.10034,0.025406,0.1604,0.10785,0.037689,0.063782,-0.051758,0.061707,-0.041779,-0.029541,-0.11005],[-0.016403,0.010582,-0.042847,-0.00031853,-0.063965,-0.030609,-0.022293,-0.027374,-0.041107,-0.017212,-0.043579,-0.097778,0.064453,0.054352,-0.021515,0.10028,-0.2002,0.003149,0.054047,-0.076477,0.12408,-0.074707,0.0025482,0.25415,0.066895,-0.11139,0.10315,-0.00042033,0.080383,0.11908,0.14136,-0.028107,0.088318,0.03125,-0.093628,-0.011444,-0.10718,0.012772,0.011589,0.014412,-0.028717,0.010994,-0.0086746,0.028412,-0.21899,0.28027,0.073669,-0.12207,-0.1178,-0.030746,-0.11658,0.21155,0.21411,-0.096069,0.025116,0.075806,0.060211,0.031769,0.079895,-0.0027714,0.09967,-0.054291,-0.034546,0.097473,-0.18286,0.0096893,-0.036133,0.071106,-0.06134,-0.000669,0.02626,-0.14575,-0.049683,0.017563,-0.04184,0.052185,0.011444,-0.0059586,-0.0073204,0.17346],[-0.020264,0.045044,0.18079,0.091553,0.026138,0.025192,0.076965,-0.047211,-0.048706,-0.12256,0.060974,0.14893,-0.037933,-0.099976,-0.01799,-0.082825,0.095276,0.0035248,-0.074402,-0.13977,0.079041,0.011063,0.1543,-0.11725,-0.12323,-0.032471,0.10028,0.013283,0.070984,0.083374,0.028275,-0.014709,0.14954,-0.079102,0.079895,0.061707,-0.019409,-0.026245,-0.097168,0.16028,0.13538,0.16882,-0.042419,-0.013222,0.17358,0.0031528,0.097961,0.054016,0.15857,0.057678,0.13953,-0.19519,-0.023712,-0.047394,0.039642,0.11475,-0.10083,-0.098328,-0.056976,-0.025604,-0.031555,-0.085266,0.030365,-0.034119,0.025665,-0.00027966,0.0849,0.049896,-0.029816,-0.0040474,0.11499,0.038879,0.097595,0.049408,0.039703,0.09906,-0.010017,0.12622,0.014862,-0.0042648],[0.051605,0.13013,0.20715,-0.0075264,0.079041,-0.016891,-0.0086594,-0.098328,0.044891,0.046112,-0.015549,0.078308,0.087952,-0.11145,0.087952,-0.0029354,0.10065,-0.059052,-0.12952,-0.026993,0.009819,-0.022003,-0.015518,-0.029205,-0.0050354,-0.07782,-0.088623,0.1377,-0.070435,-0.094971,-0.066467,0.15857,0.012482,-0.083557,-0.092773,0.026657,0.12524,0.064758,-0.12854,0.0030384,-0.13733,0.074829,0.05127,0.0053482,-0.062134,0.19495,-0.025589,0.076904,0.05069,-0.0037136,0.094177,0.12598,0.050049,-0.030945,0.091064,-0.13599,0.043915,-0.11639,-0.078735,-0.031433,0.017502,0.056824,-0.12671,0.016541,0.029358,0.081543,-0.054108,-0.094299,0.044098,0.040192,0.12793,0.089355,0.029037,0.085571,0.056946,-0.11469,-0.13916,-0.044617,0.041504,0.18701],[0.10413,0.014046,0.1803,0.16736,-0.034088,0.015854,-0.057922,-0.0024643,0.15515,-0.054382,-0.031464,0.14368,-0.061798,-0.0755,0.066284,0.11237,0.067017,-0.03598,-0.10571,0.064331,-0.035675,-0.00077009,0.0036545,-0.032959,-0.12549,0.06131,0.074707,-0.084839,0.065369,-0.056915,-0.063782,0.0073013,-0.051392,0.068298,0.12238,0.11609,0.03244,0.10913,-0.097961,0.15381,-0.031769,0.09137,-0.11908,-0.026291,-0.012024,0.15625,-0.052063,0.17419,0.15466,0.1109,0.082275,-0.064941,-0.065491,0.10205,0.11853,0.10565,-0.11444,-0.053131,-0.089966,-0.085144,-0.065308,0.0075531,0.042175,0.0224,0.043793,0.04306,0.083069,0.016739,0.025482,-0.17261,0.13977,0.035492,-0.059937,0.12695,0.086365,-0.034363,-0.10809,0.013069,-0.0042038,-0.046326],[0.045959,0.1676,0.11847,0.10089,0.17126,0.0048218,0.060608,-0.0072975,0.20142,0.057312,-0.043091,0.15088,0.012802,-0.054749,0.16418,-0.045624,0.099304,-0.11957,-0.052429,-0.08252,0.041626,0.088623,0.20374,0.088684,-0.094604,0.020065,0.011185,-0.071167,-0.028687,-0.010925,-0.11682,-0.055969,0.24536,0.080261,-0.082153,0.052368,0.16992,-0.057068,-0.11871,0.049164,-0.090149,0.14307,-0.057251,0.19849,-0.067993,-0.046478,0.058624,0.049622,-0.22803,-0.029144,-0.15869,0.10815,-0.052856,-0.16663,-0.096619,-0.059509,0.012596,0.026627,-0.080078,0.12732,0.090515,0.15698,0.057159,-0.045349,-0.13428,0.079163,-0.083191,0.025558,0.0066299,0.14429,-0.02919,-0.14026,0.088501,0.10364,0.15161,-0.0089264,-0.08252,0.10425,0.071167,0.1543],[0.079163,0.040802,0.26392,0.078003,-0.039001,0.065125,0.0093842,0.010941,-0.026764,0.11804,0.097046,0.13098,0.065918,0.070251,0.12158,-0.07782,0.048767,0.069946,-0.05191,-0.12451,0.087402,-0.046844,0.11407,-0.099609,-0.086487,0.13562,-0.014366,0.11462,-0.075623,-0.10742,0.014877,0.19678,0.07312,-0.070251,-0.0021095,0.070801,0.13464,0.047546,-0.081177,-0.015488,0.12781,0.30371,0.015099,-0.16992,0.1236,0.12598,0.0031929,0.08728,0.093689,0.012848,0.16431,-0.24695,-0.061462,0.012367,-0.0038471,-0.082703,-0.062073,-0.094666,-0.04129,-0.11713,0.086243,-0.11554,-0.065369,-0.065247,0.10529,0.077759,0.096924,0.14685,0.023605,-0.15637,0.14722,0.1626,0.06427,0.080994,-0.049011,0.11005,0.02858,0.11627,-0.028702,-0.15735],[-0.071716,-0.062347,-0.042328,-0.13525,0.044861,0.035278,0.062042,0.1073,-0.04953,0.065613,0.018723,-0.082642,0.04184,-0.02298,-0.018524,-0.0039558,-0.10901,-0.016418,0.1394,0.042542,-0.066284,0.024643,0.0024261,0.10327,-0.035187,-0.065552,-0.077271,0.0076523,0.081299,-0.055756,-0.083679,-0.1167,0.10419,0.032196,0.06015,0.059418,0.090576,0.040466,-0.012543,-0.024078,-0.060272,-0.017685,0.046753,0.1322,-0.21448,0.37183,-0.041595,0.038788,-0.21655,0.041718,-0.14136,0.074768,0.21912,0.022369,-0.078369,0.037323,0.16443,-0.06189,0.091736,0.060333,-0.027039,0.12939,0.11346,0.11273,-0.13306,0.12274,0.096069,0.032227,-0.091675,0.18701,-0.11755,-0.14795,0.039734,0.06015,0.036926,0.14758,0.1015,0.01329,0.10822,0.23865],[0.034821,-0.08429,-0.062866,0.046173,-0.028336,0.021561,0.086487,0.043854,-0.05661,0.11102,0.012955,0.056396,0.038147,0.054077,-0.0072784,-0.047668,0.030838,0.0056839,0.052032,0.0047417,0.14771,-0.021103,0.047516,-0.075684,0.036194,-0.17676,0.14124,0.085144,0.049194,-0.01416,-0.052673,0.0094604,-0.10382,-0.012146,-0.074463,0.031708,-0.046936,-0.14075,0.12415,-0.16833,-0.026505,0.057678,0.13074,-0.032532,0.044403,0.17065,0.091248,0.051727,0.12457,0.048462,-0.034668,-0.017487,0.15271,0.019104,-0.12903,-0.013573,0.031372,-0.012573,0.067017,-0.021759,0.063354,0.018585,0.11194,-0.00045466,-0.046051,0.021881,0.0131,-0.058533,-0.050995,-0.027328,0.0087738,-0.011627,-0.091064,-0.013824,-0.01889,0.037506,0.040344,0.089722,0.11981,-0.12695],[-0.16321,-0.14465,-0.17908,0.01223,0.033936,0.082947,0.11359,-0.0031433,-0.043976,-0.11041,-0.0054893,0.12842,-0.0022545,-0.027084,0.020096,0.16711,0.037872,-0.0064583,-0.030502,0.018661,0.10376,-0.151,0.045624,0.063232,0.046875,0.051758,0.018448,-0.09137,-0.098389,0.13733,-0.061584,-0.15222,-0.19983,-0.046051,0.024429,0.037354,0.021683,0.10565,-0.081055,0.095459,0.14709,-0.0078964,0.15491,-0.2373,0.203,-0.067444,-0.098145,0.013718,0.052338,0.17651,0.031021,-0.16577,0.13135,0.029099,0.097534,-0.030167,0.080688,0.076416,0.0097198,-0.15576,0.086731,-0.051666,-0.074097,0.12219,0.098328,0.033081,0.044952,0.050629,0.063782,-0.095154,0.13843,0.064941,-0.030151,-0.017914,-0.082825,0.0085297,0.082581,0.031921,0.043884,-0.040894],[-0.024246,0.043274,-0.021027,-0.11285,-0.042999,-0.09259,-0.00096369,0.11127,-0.010185,-0.0089417,0.042969,-0.11615,0.0802,0.090942,-0.0052032,4.679e-05,-0.080444,0.079773,0.11163,0.002161,0.033997,-0.034607,-0.046326,-0.029907,-0.041534,0.074951,-0.047272,0.070496,0.11542,0.019211,-0.025757,-3.165e-05,0.060181,-0.021454,0.12488,0.017242,-0.026306,-0.063171,0.086548,-0.053589,0.11566,-0.051025,0.070679,0.10583,-0.0099945,0.17798,0.03714,0.037933,-0.12036,0.068726,-0.13232,0.063293,0.19446,-0.083679,-0.12976,-0.062988,0.15161,0.016434,-0.050293,0.031006,-0.0057335,-0.031952,-0.017578,0.11298,0.016052,0.1087,0.03656,-0.034973,-0.080811,0.060211,-0.12012,-0.14856,0.013039,0.038025,0.036957,0.029785,0.0058937,0.098877,0.062866,0.077209],[-0.047516,-0.03949,-0.11505,-0.11249,-0.03363,0.047791,-0.037048,0.079712,-0.074402,0.15295,-0.1366,0.051331,-0.029068,-0.0026646,-0.12189,-0.07019,-0.15967,0.031158,0.14722,0.066711,0.12225,0.0084534,-0.086609,0.00011277,0.0034561,-0.080078,0.095764,-0.0098801,-0.0091858,0.062988,0.035004,0.037292,0.0050087,0.14746,-0.015327,0.014534,0.073547,-0.0084915,-0.057068,-0.11322,0.14307,-0.098999,-0.014847,0.13416,-0.11426,0.16882,0.057037,0.0090485,-0.02269,-0.046906,0.012863,-0.072815,0.08905,-0.063354,0.059601,0.11597,0.012512,0.10492,0.012741,0.082886,-0.0059166,-0.029709,0.070007,0.097107,0.081726,0.078308,-0.021759,0.016403,-0.035614,0.13354,0.015442,0.059265,0.0028152,-0.11523,-0.07605,0.14612,0.15259,0.031555,-0.047729,0.10376],[0.10175,-0.11621,-0.077148,0.084167,0.032166,0.029068,0.032257,-0.016129,0.1283,0.13025,0.14648,-0.13672,0.022964,0.11816,0.048187,-0.021896,0.011124,0.12769,0.029831,0.10486,0.096802,0.00073481,-0.0755,0.014389,-0.064392,-0.04718,0.036163,0.11133,0.034363,0.041931,0.077271,0.0061302,0.05899,0.13562,0.071289,0.064026,0.056396,-0.071167,0.08905,-0.011856,-0.041443,0.043701,0.077515,0.095825,-0.11029,0.14233,0.075378,-0.04007,-0.0021458,0.13513,-0.0625,0.04303,0.068237,-0.085388,0.0024014,0.034973,-0.025253,0.074524,0.040375,0.041046,0.010529,-0.044739,-0.073303,0.09613,-0.059967,0.018723,-0.036682,-0.0058441,-0.067871,0.091553,-0.14502,-0.044556,-0.084167,-0.085083,0.037048,0.044891,0.014923,0.12561,0.01265,0.10162],[0.014687,0.041718,-0.1048,-0.054504,0.11206,0.14124,0.075867,0.1438,-0.077026,0.0039291,-0.036652,-0.060608,0.12939,-0.071472,-0.030853,0.17224,-0.10602,0.12329,-0.045746,0.061157,-0.014198,0.020828,0.025864,0.10516,0.01313,-0.21985,-0.056244,-0.030853,0.11884,-0.055054,-0.012276,-0.014999,0.15271,0.067627,0.11719,-0.030838,-0.05957,-0.14697,-0.071533,0.033936,0.076965,0.11218,0.14172,0.18433,-0.018494,0.061279,0.077087,-0.10822,-0.097595,-0.13647,0.081482,-0.020096,0.17871,-0.092773,0.041534,0.070251,0.028107,0.030548,0.14026,0.033508,0.10699,0.084717,-0.015358,-0.015472,-0.088379,0.10211,0.16504,-0.10907,-0.070312,0.086304,-0.064941,-0.17175,0.008934,0.0078812,0.1015,0.076355,-0.038574,-0.11493,-0.026978,0.024063],[0.11798,0.066589,-0.045715,-0.098877,0.0091248,-0.14636,-0.16895,-0.055939,0.18933,0.031708,0.046082,0.075928,0.051422,0.12939,-0.13928,0.06134,-0.059479,-0.014465,0.084229,-0.11713,-0.058533,0.040771,0.027161,-0.071777,0.016754,-0.018967,-0.012527,0.0078964,0.12152,0.10925,-0.10223,-0.035309,0.034637,-0.013817,-0.066345,0.19202,0.22534,0.13696,-0.11389,-0.10321,-0.16809,0.1687,0.031677,0.13452,-0.054901,-0.31104,0.11993,0.12164,-0.16016,0.084961,0.033264,0.012009,-0.12439,-0.065613,-0.11267,-0.19336,0.05191,-0.031647,0.038727,-0.0019588,0.14258,0.11554,0.0979,-0.1167,-0.028976,0.1095,0.085266,0.013939,-0.036285,0.092163,0.064087,0.081604,0.16858,-0.10449,-0.14587,0.11194,0.14172,0.06897,0.10999,0.072754],[0.025299,0.01548,-0.014343,0.091003,-0.065125,0.068604,-0.13623,0.058319,-0.050751,-0.036407,-0.0047302,0.12695,0.024887,-0.125,-0.032196,-0.098145,0.013763,0.0085602,0.029907,-0.081238,0.11188,-0.022446,-0.038513,-0.11182,-0.11432,0.043915,0.03009,0.060455,-0.125,0.09668,0.018921,0.11371,0.084473,-0.13721,-0.092773,-0.0065842,0.16248,0.038727,-0.14429,-0.0081558,0.011139,0.23804,0.093933,-0.04068,0.094604,0.21936,0.062561,0.12195,0.031708,0.089172,0.0027752,-0.25171,-0.12915,0.18518,0.052826,0.11462,0.065735,-0.0024605,0.042236,-0.066406,-0.0088654,-0.0802,0.074707,0.045593,0.17029,-0.00025129,-0.13342,0.088318,0.065552,-0.16235,0.12769,0.066528,0.10535,0.018219,-0.14746,0.10333,0.0089188,0.1134,0.052246,0.02182],[0.087646,0.15942,0.38159,0.027725,-0.013771,-0.048157,-0.057739,0.10107,0.11224,-0.036072,0.096252,0.20288,-0.17126,-0.020584,0.0037975,-0.014809,0.073669,-0.082153,-0.057526,0.0083466,-0.012184,-0.064514,0.15686,-0.1145,-0.15552,0.17407,0.01461,-0.097534,-0.051025,0.043915,-0.12329,0.20825,0.11017,0.037811,0.050476,0.062805,-0.045166,-0.0056725,-0.10791,0.16736,0.016006,0.19312,-0.099609,-0.10419,0.0034485,0.087952,0.017273,0.02478,0.035797,0.044525,0.2229,-0.092712,-0.035858,0.11041,0.18567,-0.019409,-0.087891,-0.015465,-0.070923,-0.0027542,-0.10999,-0.12238,-0.11993,-0.11725,0.1842,-0.087708,-0.021332,-0.033691,0.01709,-0.24231,0.14783,0.19678,0.016785,0.052338,0.1189,0.14722,0.004303,-0.011948,0.13879,-0.26758],[0.067322,0.077942,0.0009203,0.071533,0.11658,-0.094666,-0.030045,0.073303,0.1001,-0.021133,0.028961,0.010803,0.01239,-0.077271,0.0052757,-0.079224,-0.10034,0.095337,-0.01799,0.0017176,0.029404,0.12866,0.14929,-0.041107,-0.030243,-0.26709,-0.13892,-0.011543,0.039612,-0.020004,-0.05899,0.012825,0.044159,0.089111,0.012009,0.10144,0.042847,-0.044708,-0.18311,0.081116,-0.14124,0.048553,-0.13123,0.09436,-0.013474,-0.017365,0.10992,0.044464,-0.0025482,0.08252,-0.12988,0.036987,0.019272,-0.081787,0.01133,-0.15906,-0.069763,-0.044189,-0.12073,-0.0023327,0.053497,-0.092407,0.0979,-0.098022,-0.030258,0.081116,0.014297,-0.06781,-0.064941,0.027069,0.112,0.057281,0.023773,0.023804,0.15747,0.071716,0.058136,-0.080811,0.11542,0.11993],[0.10364,0.054626,0.035156,0.01416,0.14197,-0.019165,-0.13843,0.078674,0.056824,0.091858,0.033081,0.08252,0.065491,-0.075256,0.19922,-0.078674,0.08252,-0.11139,-0.070496,0.072083,-0.030365,0.034912,0.15613,0.085205,-0.1355,0.039642,-0.007618,0.091309,-0.04599,-0.0093918,-0.063538,0.068542,0.13562,0.00774,-0.013969,-0.04184,0.027039,-0.084717,-0.075134,0.11133,0.055023,0.032959,-0.016327,-0.14331,0.12341,0.14868,-0.098694,0.0035973,0.0085907,-0.00034976,-0.06488,0.034302,-0.06189,0.018143,0.035553,-0.044891,0.063538,0.10315,-0.1225,-0.05072,-0.0037613,0.05246,-0.040649,-0.037445,0.02829,0.049683,0.064636,0.061066,0.045105,-0.23767,0.066956,0.042938,-0.096436,0.16516,-0.1236,-0.0755,-0.081848,0.10162,-0.022629,-0.12463],[-0.11658,-0.020966,-0.025467,-0.1236,-0.081665,-0.039703,0.087341,0.094055,0.0072937,0.0010948,-0.077576,0.014427,0.00070333,0.011864,-0.072571,0.071594,0.01281,0.1311,0.13684,-0.02066,0.068848,-0.10681,-0.085083,0.15283,0.049988,-0.10498,0.11774,-0.004631,0.064819,0.088074,0.040955,-0.096558,-0.041687,0.13538,0.12561,-0.10077,0.056458,-0.13513,0.11542,0.082642,0.112,0.036377,-0.023605,0.040375,0.1236,0.042755,0.13098,-0.024918,0.094482,-0.11493,-0.017578,0.048523,0.068359,0.079041,-0.067444,-0.029968,0.085388,0.034271,-0.053314,0.070557,0.02182,0.064636,0.054047,-0.03302,-0.095093,-0.051727,0.10413,-0.088257,0.086853,-0.018646,-0.014557,0.073853,-0.047821,-0.11444,0.0090179,-0.0354,0.11285,0.02121,0.11572,-0.027588],[-0.026581,-0.010262,-0.0336,0.14758,0.025711,-0.037476,-0.070923,-0.08313,0.16833,-0.055725,0.012001,0.12494,0.05307,0.028915,0.13403,-0.077271,0.072449,-0.065125,-0.014595,0.096069,-0.065857,0.11279,0.092468,0.043182,-0.030746,-0.040894,-0.11237,-0.027618,0.0063591,-0.063599,-0.11517,0.066345,-0.10968,-0.072205,-0.12183,0.13306,0.1416,0.070862,-0.15125,0.20129,0.035309,0.0021515,0.048828,-0.044342,-0.084839,0.13965,-0.11053,0.10315,0.084595,-0.022476,-0.0062294,0.1037,0.10425,-0.055573,-0.0072098,-0.01651,-0.07843,-0.082764,-0.062866,-0.021942,-0.014404,0.00076437,-0.025406,-0.092651,0.082825,0.079468,0.0090408,-0.001296,-0.064148,-0.055176,0.065308,0.056091,0.072632,0.0033417,0.0046043,0.015038,0.062988,0.16113,-0.072815,0.16943],[0.069702,0.063477,0.048584,-0.10376,0.11389,-0.17529,-0.060516,-0.080383,0.18982,0.0023403,-0.0071449,-0.1261,0.17749,0.0099792,0.10895,-0.070862,0.13403,0.0085602,-0.019073,0.19556,-0.074646,0.022324,0.12708,-0.081726,0.064148,0.059448,-0.090576,-0.053833,0.091309,0.034393,0.0055237,-0.31616,0.045807,0.16406,0.035156,0.19519,0.21582,-0.0039368,0.10437,-0.019958,-0.07074,0.043243,-0.10138,-0.032379,0.081116,-0.28296,-0.014053,0.11658,-0.15442,0.086304,-0.14941,0.13257,-0.16431,-0.21045,-0.10852,-0.11462,0.0029087,0.064148,0.13416,0.16846,0.042877,0.054565,0.10522,0.11548,-0.027542,-0.0026875,0.056427,-0.16064,-0.11078,0.039337,-0.15405,-0.15112,0.17908,0.039917,0.21497,-0.0073509,-0.021484,0.076843,0.12317,-0.0046806],[-0.011703,0.27441,-0.04837,0.10388,0.10052,0.1001,0.19067,0.06958,0.024231,-0.029434,-0.23804,0.079773,0.067749,0.049561,-0.10071,0.17578,-0.037323,-0.065613,0.14038,0.10114,0.033875,-0.015244,0.087341,0.24292,-0.057861,-0.11102,0.15405,-0.18164,-0.16431,0.019882,-0.040527,-0.30469,0.20361,0.026154,0.054138,-0.14502,-0.046875,-0.35938,0.060181,0.20728,0.05368,-0.13135,0.02478,0.041534,-0.023819,-0.12817,-0.037354,-0.061462,0.011353,0.15015,0.10638,-0.021408,0.030716,-0.17554,-0.14307,0.031113,-0.091675,0.037964,0.12927,0.14709,-0.088257,-0.066772,0.013786,0.031235,0.066711,-0.058655,0.29175,-0.2417,0.0755,-0.080933,0.025528,0.038177,-0.091309,0.091675,-0.011292,-0.092957,-0.13171,-0.25659,0.11768,-0.14185],[0.16797,-0.047302,0.11224,-0.024612,0.022552,-0.16394,-0.025528,0.022049,0.0086899,0.028824,0.086731,0.061768,-0.088013,0.095459,0.056946,0.045166,0.058838,0.02356,-0.08075,0.013206,-0.0087357,0.11267,-0.030884,-0.064392,-0.031616,-0.041901,-0.039764,0.15125,0.094604,-0.067993,-0.0055618,-0.014397,0.010979,-0.10443,-0.14258,0.13525,0.084351,0.10193,0.026642,0.12299,-0.020462,-0.0010939,-0.065186,-0.014763,-0.18103,0.13757,0.059631,0.018967,-0.047546,-0.029831,0.081299,0.17419,-0.070312,0.070618,0.0073242,-0.050934,0.051208,-0.079773,-0.13477,0.047974,-0.057037,0.0059967,-0.061096,0.025726,0.036987,-0.066772,-0.11963,0.13599,-0.094299,0.029022,0.16235,-0.03833,-0.045624,0.037689,0.040161,-0.093445,0.050537,0.0052605,-0.076172,0.052002],[0.13379,0.11829,0.13989,0.091248,0.095581,-0.11359,0.04306,-0.010406,0.16711,-0.1073,-0.075806,0.048248,-0.042694,0.012169,0.050079,-0.038208,0.11646,-0.068726,0.0051308,0.068726,0.042297,0.056122,0.070068,0.0056877,-0.02269,0.048004,-0.090332,-0.11249,0.063721,-0.11255,-0.13599,-0.034027,-0.021118,-0.016403,0.0051498,0.19165,0.09436,-0.025085,0.030289,0.087646,-0.12427,-0.030045,-0.045654,0.060638,-0.0009985,0.058136,0.052582,0.090942,-0.028351,0.083801,-0.077393,0.29736,-0.05957,-0.047272,-0.054474,0.040222,0.0010853,0.0016851,-0.12903,0.04248,-0.02388,0.074951,-0.11633,-0.049683,-0.057556,-0.10315,0.025223,-0.048157,0.045624,0.10077,-0.054077,-0.024963,0.11523,-0.024948,0.15222,-0.081726,-0.0049438,-0.086304,0.048462,0.21436],[0.14978,0.044098,-0.019531,-0.030258,0.064209,-0.032898,-0.14734,-0.051117,0.16565,-0.087708,0.097839,-0.037811,0.05545,0.008934,0.14929,-0.094788,0.079346,0.093689,-0.015015,-0.11829,-0.063843,0.054352,-0.002449,-0.14795,-0.1167,-0.032532,0.0096436,-0.040985,-0.071106,0.15149,-0.019547,-0.0063438,0.11395,-0.10498,-0.13281,0.10944,0.11884,-0.13452,0.042847,-0.0095749,-0.044861,0.11163,0.057068,0.085632,-0.0068169,-0.018234,0.020447,0.057648,0.17273,0.05368,-0.053741,0.035004,-0.066284,0.10229,0.063782,0.012482,-0.048126,0.037964,0.011696,-0.12421,0.10492,-0.0041962,-0.014633,-0.12329,-0.039642,0.090271,-0.029053,0.066589,-0.074341,0.049316,0.18323,-0.0064697,0.025635,0.078491,-0.053223,-0.0050278,0.052917,0.10742,-0.0024891,-0.010643],[0.024841,0.072327,0.053009,0.13123,-0.040283,-0.0077782,0.042664,-0.013245,-0.076965,-0.079773,-0.030533,0.02652,-0.069885,0.019196,0.057526,0.048492,0.040802,0.045898,0.088989,0.051575,-0.028122,-0.13123,-0.063599,-0.063965,-0.063965,-0.043488,-0.00055075,0.048035,0.028122,0.081482,0.090576,0.088684,-0.18628,-0.0014429,-0.072693,0.12158,0.11432,0.00038862,-0.097778,-0.045471,0.027588,-0.04892,0.11133,-0.41797,-0.030884,0.21838,-0.045013,0.0058327,0.1192,0.07373,0.029434,0.040344,-0.042267,-0.24719,0.092773,0.068298,-0.079956,-0.042542,0.00093651,0.022186,0.097717,0.022507,0.1153,0.12598,0.041809,0.079651,0.077332,-0.017563,0.084229,-0.0025215,0.13159,0.12469,-0.039215,-0.0095139,-0.061218,-0.063354,-0.059265,0.19434,0.073669,-0.033203],[0.092957,-0.093201,0.0019169,0.068909,0.047394,-0.039032,0.027069,0.031219,0.18384,-0.084229,0.10413,-0.0050735,-0.016541,-0.11755,0.14441,-0.16406,0.034851,-0.073669,0.019577,-0.030411,-0.033295,-0.077148,0.097595,-0.083252,-0.017502,0.049896,-0.08905,0.0037212,0.081238,0.12128,-0.079224,0.090698,0.066772,0.08905,-0.011559,0.1203,0.031311,0.10022,-0.14307,-0.09845,-0.03244,0.12708,-0.098022,-0.003582,0.085938,0.23254,-0.0578,0.048676,0.11432,0.090759,0.077881,0.055817,-0.13782,-0.033875,0.018707,-0.029343,-0.060638,0.088745,-0.15295,-0.0072136,0.058136,-0.084167,0.04184,-0.024582,-0.047913,-0.019958,-0.071716,-0.043976,0.055908,0.1153,-0.010994,0.036987,0.12146,0.038513,-0.099426,-0.033997,0.14819,0.18518,0.086487,0.13843],[-0.082275,0.11078,-0.045288,-0.022903,-0.04245,0.11707,0.0023384,0.030884,-0.12134,0.064331,-0.074463,-0.021042,0.0054359,0.054443,-0.0032463,0.058411,-0.10535,-0.068848,0.069336,-0.03299,-0.047546,-0.028915,-0.13049,0.097351,0.032959,0.13611,-0.040283,-0.066162,0.066467,-0.0052071,0.10718,-0.011108,0.041199,-0.024261,0.08667,-0.13049,0.021149,0.10583,-0.036743,-0.13171,-0.015869,0.046265,-0.042114,0.082214,0.024445,0.026825,-0.0087738,-0.033783,0.089722,-0.027649,-0.021408,-0.15344,0.12622,-0.027985,0.015686,0.064575,0.024307,0.075684,-0.026306,0.022873,0.0070686,0.010834,0.042633,0.1438,-0.05014,0.12915,-0.013077,0.10791,-0.011459,0.11267,-0.038879,-0.039337,-0.16736,-0.072632,-0.012657,0.11615,0.096924,0.021652,-0.097168,0.035065],[0.095398,-0.0092545,0.044769,-0.048279,-0.017624,-0.035492,-0.15381,-0.010597,0.11035,0.016647,0.19019,0.13525,-0.10699,-0.026627,0.15613,-0.11584,-0.005825,0.05188,-0.078735,0.12537,-0.040924,